{"type":"LSTM","options":{"inputSize":23,"inputRange":23,"hiddenLayers":[20,20],"outputSize":23,"learningRate":0.01,"decayRate":0.999,"smoothEps":1e-8,"regc":0.000001,"clipval":5,"maxPredictionLength":100,"dataFormatter":{"values":["0","1","bahagia","bangga","galau","gembiraa","haancur","lega","marah","menangis","murung","pecah","puas","sedih","senang","senyum","tertawa"],"indexTable":{"0":0,"1":1,"b":2,"a":3,"h":4,"g":5,"i":6,"n":7,"l":8,"u":9,"e":10,"m":11,"r":12,"c":13,"s":14,"p":15,"d":16,"y":17,"t":18,"w":19,"stop-input":20,"start-output":21,"unrecognized":22},"characterTable":{"0":"0","1":"1","2":"b","3":"a","4":"h","5":"g","6":"i","7":"n","8":"l","9":"u","10":"e","11":"m","12":"r","13":"c","14":"s","15":"p","16":"d","17":"y","18":"t","19":"w","20":null,"21":null,"22":null},"characters":["0","1","b","a","h","g","i","n","l","u","e","m","r","c","s","p","d","y","t","w","stop-input","start-output","unrecognized"],"specialIndexes":[20,21,22]}},"input":{"rows":24,"columns":23,"weights":{"0":0.29669296741485596,"1":-0.37690436840057373,"2":0.436502069234848,"3":0.15843458473682404,"4":-0.012866916134953499,"5":0.335114449262619,"6":-1.438235878944397,"7":-1.5560282468795776,"8":-1.0252413749694824,"9":1.0429972410202026,"10":-1.3539838790893555,"11":-0.7095054388046265,"12":-0.9827060103416443,"13":-0.1535274088382721,"14":-0.34542813897132874,"15":1.1027207374572754,"16":1.5587658882141113,"17":-1.132846474647522,"18":0.62568199634552,"19":0.1431351900100708,"20":-1.6729340553283691,"21":0.5429657101631165,"22":0.7356002330780029,"23":0.6442573070526123,"24":1.770027756690979,"25":-1.9199508428573608,"26":0.2213839441537857,"27":0.16164445877075195,"28":-1.786023736000061,"29":0.7568815350532532,"30":3.1849801540374756,"31":-0.8525879979133606,"32":-2.778491735458374,"33":-2.7468760013580322,"34":-1.895595908164978,"35":-0.5746827721595764,"36":0.6477603316307068,"37":0.06580717861652374,"38":-0.3568945825099945,"39":0.5585580468177795,"40":2.657289505004883,"41":-2.4012904167175293,"42":2.217271327972412,"43":0.22159220278263092,"44":-1.6529827117919922,"45":1.1354856491088867,"46":-0.006952826399356127,"47":-1.3318496942520142,"48":0.8797140121459961,"49":1.9910436868667603,"50":-0.8458042144775391,"51":0.07847169041633606,"52":-1.0473697185516357,"53":-1.1809990406036377,"54":-2.8425371646881104,"55":-0.8453636169433594,"56":-1.9958304166793823,"57":-2.04262638092041,"58":0.5461584329605103,"59":-0.9718151092529297,"60":-0.8207708597183228,"61":-1.824854850769043,"62":1.1340422630310059,"63":0.13938391208648682,"64":-0.3788640797138214,"65":-0.4368716776371002,"66":0.8086286783218384,"67":0.535555362701416,"68":3.3014633655548096,"69":2.526996374130249,"70":1.2132515907287598,"71":-3.144756317138672,"72":-1.0912026166915894,"73":2.0565593242645264,"74":-3.3785412311553955,"75":0.4049396812915802,"76":2.950312614440918,"77":4.8099141120910645,"78":-0.3929120600223541,"79":5.818609237670898,"80":1.3269479274749756,"81":-4.099943161010742,"82":-1.5348840951919556,"83":-0.0004188004822935909,"84":-0.11379247158765793,"85":-1.1090302467346191,"86":2.1385767459869385,"87":-2.598695993423462,"88":2.6985347270965576,"89":-4.11854887008667,"90":1.1863398551940918,"91":-4.014496803283691,"92":0.4039563238620758,"93":-1.4108693599700928,"94":1.1808526515960693,"95":-0.11958631128072739,"96":-0.8825847506523132,"97":0.10609438270330429,"98":-1.0171054601669312,"99":1.9083826541900635,"100":1.5207868814468384,"101":0.36012065410614014,"102":1.9752264022827148,"103":1.3844308853149414,"104":0.8064448237419128,"105":-1.5790815353393555,"106":-0.32494527101516724,"107":1.1044808626174927,"108":-1.2072803974151611,"109":-2.032437324523926,"110":0.6209145784378052,"111":-0.3824881911277771,"112":-1.7937250137329102,"113":-1.0240343809127808,"114":-0.5521422028541565,"115":0.30240172147750854,"116":-1.4177813529968262,"117":0.754202663898468,"118":-0.7656302452087402,"119":-1.7707213163375854,"120":1.0257025957107544,"121":-0.3134111762046814,"122":-1.53877592086792,"123":-3.0981013774871826,"124":0.07851086556911469,"125":-2.919926404953003,"126":-2.032113790512085,"127":2.259976387023926,"128":-1.8370742797851562,"129":-1.5303919315338135,"130":0.29719141125679016,"131":-1.450872778892517,"132":0.6857510805130005,"133":-0.42717671394348145,"134":-0.9115297794342041,"135":0.5400325655937195,"136":-1.631822109222412,"137":2.977184772491455,"138":-0.42882323265075684,"139":0.10093706846237183,"140":0.28564393520355225,"141":0.10435522347688675,"142":0.40549367666244507,"143":-0.21773900091648102,"144":-0.9286471605300903,"145":2.912780523300171,"146":-0.7833224534988403,"147":0.8267529010772705,"148":0.832200288772583,"149":1.556478500366211,"150":1.2851743698120117,"151":0.3261883556842804,"152":0.4113636910915375,"153":1.0258492231369019,"154":-4.055734157562256,"155":-1.0021225214004517,"156":0.7190014719963074,"157":-0.3881959319114685,"158":0.43026965856552124,"159":0.5923661589622498,"160":-1.0265483856201172,"161":-0.5226300954818726,"162":0.35640379786491394,"163":-0.2068420648574829,"164":0.20075757801532745,"165":0.26333609223365784,"166":0.8224568367004395,"167":0.853219747543335,"168":-0.31761589646339417,"169":-0.1382748782634735,"170":-0.1686786711215973,"171":-0.22647657990455627,"172":-3.085440158843994,"173":-2.635424852371216,"174":0.1822812855243683,"175":-0.4513721466064453,"176":-1.1602927446365356,"177":2.976259231567383,"178":0.148451030254364,"179":0.1420535445213318,"180":-0.2572336196899414,"181":-0.2954202890396118,"182":-3.6855146884918213,"183":0.6816660761833191,"184":-2.3213255405426025,"185":0.6901115775108337,"186":-2.1082122325897217,"187":-2.4065053462982178,"188":-0.38524314761161804,"189":0.6770451664924622,"190":3.0842537879943848,"191":1.235607624053955,"192":-1.988186001777649,"193":-2.8862974643707275,"194":-0.33299848437309265,"195":0.6698811054229736,"196":2.217334747314453,"197":-1.05076003074646,"198":-1.321738600730896,"199":-3.3327322006225586,"200":-0.4607521593570709,"201":2.545940399169922,"202":-1.748059630393982,"203":0.5907952785491943,"204":4.5341267585754395,"205":-1.5588687658309937,"206":0.6864418983459473,"207":-4.105895519256592,"208":3.140531539916992,"209":-3.5557146072387695,"210":-1.9611319303512573,"211":-2.024578332901001,"212":-3.395879030227661,"213":0.2989632189273834,"214":9.900638580322266,"215":-2.711099624633789,"216":-2.9191410541534424,"217":4.229712009429932,"218":4.070265293121338,"219":4.585023880004883,"220":-3.9463605880737305,"221":-4.25293493270874,"222":-2.719416856765747,"223":-3.2758841514587402,"224":1.7323294878005981,"225":-1.3690662384033203,"226":2.8922975063323975,"227":0.18295831978321075,"228":3.7086334228515625,"229":-0.2292836457490921,"230":2.1643147468566895,"231":-3.1450603008270264,"232":1.5354992151260376,"233":0.6104500889778137,"234":-3.676010847091675,"235":1.5575175285339355,"236":-1.043192744255066,"237":-1.907728672027588,"238":-2.4315402507781982,"239":0.9463472366333008,"240":-2.6748998165130615,"241":-1.404412865638733,"242":-2.0588226318359375,"243":-3.3325040340423584,"244":-2.816551446914673,"245":-1.001309871673584,"246":1.7865016460418701,"247":-1.722659707069397,"248":2.6949446201324463,"249":0.12635448575019836,"250":-3.4258792400360107,"251":-1.1729708909988403,"252":1.471766710281372,"253":-0.2684134542942047,"254":-1.4532265663146973,"255":0.33553382754325867,"256":2.2538554668426514,"257":-0.9197423458099365,"258":-0.43676918745040894,"259":-3.2257864475250244,"260":0.32809048891067505,"261":-0.8455314040184021,"262":0.7870302796363831,"263":0.5513819456100464,"264":-0.6203297972679138,"265":0.3023878335952759,"266":-0.40515950322151184,"267":0.9022409319877625,"268":2.6197874546051025,"269":-0.42357388138771057,"270":-1.6300344467163086,"271":0.2937681972980499,"272":-1.6690527200698853,"273":-3.067129611968994,"274":-1.4480088949203491,"275":1.9917792081832886,"276":-0.6411641836166382,"277":-1.2828041315078735,"278":1.536954402923584,"279":1.386085033416748,"280":-0.04251188784837723,"281":1.0685067176818848,"282":-0.7807652354240417,"283":0.22857101261615753,"284":2.2514278888702393,"285":1.992766261100769,"286":2.8588764667510986,"287":0.8236924409866333,"288":-0.2365102916955948,"289":-0.9295786023139954,"290":-0.6051113605499268,"291":0.353008896112442,"292":-0.7920186519622803,"293":-1.5288021564483643,"294":1.8811514377593994,"295":-0.9362021684646606,"296":-1.181138515472412,"297":0.009521274827420712,"298":-1.6548330783843994,"299":-0.3998638093471527,"300":2.1814990043640137,"301":-0.7245078086853027,"302":-0.22260023653507233,"303":1.1524289846420288,"304":-3.9803781509399414,"305":-2.489656686782837,"306":-0.1677827686071396,"307":-0.9548385143280029,"308":-0.5742136836051941,"309":-0.974212646484375,"310":-1.1739500761032104,"311":0.19332075119018555,"312":-1.2490999698638916,"313":0.3039384186267853,"314":1.4458935260772705,"315":-1.6680850982666016,"316":0.14190177619457245,"317":-1.128464698791504,"318":1.518784761428833,"319":1.17381751537323,"320":4.8311309814453125,"321":-1.0041388273239136,"322":2.973867893218994,"323":6.035425186157227,"324":-3.6466312408447266,"325":-6.313901424407959,"326":6.2384819984436035,"327":-3.8656516075134277,"328":-0.2937529683113098,"329":0.14044654369354248,"330":-1.6478354930877686,"331":-8.186711311340332,"332":1.2909269332885742,"333":-2.8514435291290283,"334":-1.9929652214050293,"335":3.759096384048462,"336":3.721622943878174,"337":-2.752098560333252,"338":2.2852365970611572,"339":5.132841110229492,"340":-2.87808895111084,"341":6.682554244995117,"342":-0.26191312074661255,"343":-0.6026972532272339,"344":2.873516082763672,"345":-3.5984532833099365,"346":0.01252572052180767,"347":-0.04511488974094391,"348":0.42149779200553894,"349":-0.73707515001297,"350":0.2369714230298996,"351":1.231844186782837,"352":3.2309048175811768,"353":2.1960933208465576,"354":0.2232046127319336,"355":3.5704832077026367,"356":-0.6873390078544617,"357":-2.0011684894561768,"358":-1.5566115379333496,"359":-1.1885840892791748,"360":-2.3117964267730713,"361":0.16234400868415833,"362":-3.5657689571380615,"363":2.3704874515533447,"364":-0.5482884049415588,"365":0.7146338224411011,"366":-3.2041211128234863,"367":-0.20556242763996124,"368":0.5823222398757935,"369":-0.2506953775882721,"370":0.16202574968338013,"371":-1.6557530164718628,"372":-1.6430240869522095,"373":1.967965006828308,"374":-2.809924602508545,"375":-1.359334111213684,"376":0.5547704100608826,"377":0.7073975801467896,"378":-3.0199952125549316,"379":2.601935863494873,"380":2.731536865234375,"381":-1.1519696712493896,"382":0.10380664467811584,"383":3.2774312496185303,"384":-2.5272796154022217,"385":-0.8597031235694885,"386":-1.274498462677002,"387":-0.13034138083457947,"388":1.4395602941513062,"389":6.333909511566162,"390":-7.1410932540893555,"391":-2.4667768478393555,"392":2.6019678115844727,"393":-0.1340317577123642,"394":-1.9625039100646973,"395":2.2420382499694824,"396":0.40666452050209045,"397":1.9004617929458618,"398":2.085142135620117,"399":4.08974552154541,"400":-1.4120749235153198,"401":0.8094574213027954,"402":-1.6643567085266113,"403":-0.8997038006782532,"404":2.6402432918548584,"405":1.5470768213272095,"406":-1.3325650691986084,"407":1.0302903652191162,"408":-0.7910864353179932,"409":0.10075309872627258,"410":1.1396288871765137,"411":2.6326241493225098,"412":4.137451171875,"413":-5.01431941986084,"414":-1.3070409297943115,"415":1.8097635507583618,"416":-2.262557029724121,"417":-1.6756479740142822,"418":-2.776352643966675,"419":3.2163045406341553,"420":9.667024612426758,"421":3.017796516418457,"422":5.9968695640563965,"423":-0.1528376340866089,"424":5.496374607086182,"425":-1.1098812818527222,"426":-4.00619649887085,"427":-0.3212157189846039,"428":-0.04816988855600357,"429":-7.9229021072387695,"430":6.400169372558594,"431":2.3096306324005127,"432":-1.3223501443862915,"433":-2.674459457397461,"434":4.988632678985596,"435":-3.7148821353912354,"436":-3.9942002296447754,"437":-9.722513198852539,"438":0.12903432548046112,"439":-1.9968067407608032,"440":0.9064492583274841,"441":2.1466245651245117,"442":-0.2726387679576874,"443":4.752525329589844,"444":7.102926731109619,"445":-6.3532490730285645,"446":-7.218662738800049,"447":-0.878061056137085,"448":1.9521716833114624,"449":5.753300189971924,"450":-1.7982207536697388,"451":-0.5863627791404724,"452":-7.037606239318848,"453":-5.798890113830566,"454":1.9733295440673828,"455":-2.211355447769165,"456":2.027416467666626,"457":6.458249568939209,"458":-3.2645785808563232,"459":5.839989185333252,"460":2.467538356781006,"461":5.839395046234131,"462":-4.294365406036377,"463":-4.787464618682861,"464":6.386034965515137,"465":-4.734254837036133,"466":2.8577072620391846,"467":4.93415641784668,"468":-1.394091248512268,"469":-7.293855667114258,"470":-9.596161842346191,"471":-10.181950569152832,"472":-4.114748954772949,"473":2.0811076164245605,"474":5.810765743255615,"475":-7.107864856719971,"476":4.845165729522705,"477":1.441725492477417,"478":-5.444728851318359,"479":5.312396049499512,"480":-3.668003559112549,"481":-0.9136057496070862,"482":4.532673358917236,"483":1.096717119216919,"484":0.755846381187439,"485":-0.8206109404563904,"486":-0.2564292252063751,"487":0.3602876663208008,"488":-0.5287383794784546,"489":0.041490018367767334,"490":-2.731431007385254,"491":0.8392724990844727,"492":0.5832502245903015,"493":-0.12927888333797455,"494":-0.040398307144641876,"495":-0.1916581094264984,"496":1.2423368692398071,"497":0.8689943552017212,"498":-0.04306865856051445,"499":0.12502725422382355,"500":0.7694451808929443,"501":-0.18744590878486633,"502":1.3877694606781006,"503":0.2612638771533966,"504":0.7595685720443726,"505":-0.7510867714881897,"506":0.431897908449173,"507":1.3903943300247192,"508":-1.0317370891571045,"509":-1.751534342765808,"510":1.5479991436004639,"511":-1.1755653619766235,"512":1.3553073406219482,"513":-0.006278607528656721,"514":0.04783029481768608,"515":-1.2055187225341797,"516":-0.4173620939254761,"517":0.618469774723053,"518":-0.9503632187843323,"519":1.8476357460021973,"520":0.8412825465202332,"521":-0.6532475352287292,"522":0.9937940239906311,"523":1.4090012311935425,"524":-1.125732660293579,"525":1.4721897840499878,"526":0.5716227293014526,"527":0.2205163538455963,"528":-0.3597157895565033,"529":0.03668614476919174,"530":0.010912038385868073,"531":-0.016961239278316498,"532":-0.020924407988786697,"533":0.06505338102579117,"534":0.018540890887379646,"535":-0.032964978367090225,"536":0.027199091389775276,"537":0.02658303827047348,"538":-0.06360731273889542,"539":0.03883494809269905,"540":-0.03939212113618851,"541":-0.07038803398609161,"542":-0.015223003923892975,"543":-0.04130472615361214,"544":0.012825471349060535,"545":-0.06351084262132645,"546":-0.018876276910305023,"547":0.04213026538491249,"548":0.04248573258519173,"549":-0.05744343250989914,"550":0.013985940255224705,"551":-0.0612158328294754}},"hiddenLayers":[{"inputMatrix":{"rows":20,"columns":23,"weights":{"0":0.20704500377178192,"1":1.0163109302520752,"2":-0.7836747169494629,"3":-0.49196359515190125,"4":0.4746255874633789,"5":-0.29716137051582336,"6":1.429778814315796,"7":-0.09231388568878174,"8":1.2419860363006592,"9":-0.7840140461921692,"10":1.0710439682006836,"11":-0.25258126854896545,"12":-0.8265747427940369,"13":0.7325776219367981,"14":0.17620599269866943,"15":-1.3093364238739014,"16":0.58631831407547,"17":1.177720308303833,"18":-0.7654621005058289,"19":0.47613590955734253,"20":0.009042228572070599,"21":0.09993061423301697,"22":-1.1218942403793335,"23":-0.5355560183525085,"24":-1.951931118965149,"25":1.1180135011672974,"26":1.150242567062378,"27":-0.8949077129364014,"28":1.40790855884552,"29":0.9325509667396545,"30":0.35524246096611023,"31":0.6244839429855347,"32":0.355923593044281,"33":0.6060814261436462,"34":0.8327146172523499,"35":1.2025500535964966,"36":-0.37803301215171814,"37":-0.21573686599731445,"38":-0.18954263627529144,"39":-1.4338901042938232,"40":-0.740630567073822,"41":1.1300642490386963,"42":-1.6777852773666382,"43":0.8115511536598206,"44":-2.978853225708008,"45":0.5019063353538513,"46":0.8140926361083984,"47":0.6285243630409241,"48":-0.40102288126945496,"49":0.24144959449768066,"50":0.5339264273643494,"51":-0.8098820447921753,"52":-0.964549720287323,"53":1.7515275478363037,"54":-0.33524730801582336,"55":-0.40203994512557983,"56":1.0323365926742554,"57":0.9776484370231628,"58":1.3978261947631836,"59":0.9423888921737671,"60":1.3764193058013916,"61":1.2301735877990723,"62":-2.0024499893188477,"63":-0.3245435953140259,"64":-0.2954164445400238,"65":0.21901625394821167,"66":-0.15502741932868958,"67":-0.6640412211418152,"68":0.8420384526252747,"69":-1.3868389129638672,"70":-1.3038829565048218,"71":1.106117844581604,"72":0.7354317307472229,"73":-2.2889277935028076,"74":1.0106987953186035,"75":-0.05324427783489227,"76":0.1968543529510498,"77":-1.1170810461044312,"78":0.07262016832828522,"79":0.7047079801559448,"80":0.3728938102722168,"81":1.6435661315917969,"82":-1.955135703086853,"83":-1.8605461120605469,"84":-0.0030000493861734867,"85":-0.9586514830589294,"86":-0.3971143066883087,"87":0.46914786100387573,"88":-1.0658022165298462,"89":-0.04152554273605347,"90":-1.5633409023284912,"91":1.667913794517517,"92":-0.4242337644100189,"93":0.4956226348876953,"94":-0.5863491892814636,"95":-0.5054838061332703,"96":0.7528801560401917,"97":-0.5078195929527283,"98":0.2691812217235565,"99":1.4843170642852783,"100":-0.3066360354423523,"101":-0.3887716233730316,"102":0.030185921117663383,"103":-1.0348056554794312,"104":-2.5223448276519775,"105":-0.17297931015491486,"106":-0.3726519048213959,"107":-0.5815726518630981,"108":1.7753193378448486,"109":0.3280896842479706,"110":-0.41181156039237976,"111":0.7390671968460083,"112":-1.3076012134552002,"113":0.19737118482589722,"114":0.42769938707351685,"115":0.9436740279197693,"116":0.39990848302841187,"117":-0.004691374488174915,"118":-0.5393102169036865,"119":0.24434447288513184,"120":0.13400302827358246,"121":0.7332426309585571,"122":-0.5374854803085327,"123":1.1484333276748657,"124":0.0018762395484372973,"125":-0.7816590070724487,"126":-0.7504194974899292,"127":-2.965247869491577,"128":0.4848267436027527,"129":-0.3182236850261688,"130":-0.752765953540802,"131":2.4432008266448975,"132":-0.017760328948497772,"133":0.3291338384151459,"134":0.9141841530799866,"135":-0.4151586890220642,"136":0.947197437286377,"137":-0.8791714906692505,"138":0.16618391871452332,"139":0.7568877935409546,"140":-1.1153264045715332,"141":-0.43031102418899536,"142":0.4963248372077942,"143":-1.1891897916793823,"144":0.530170202255249,"145":0.4573586583137512,"146":-0.1325964778661728,"147":-1.124691367149353,"148":0.33714810013771057,"149":0.4048314094543457,"150":-0.3986632525920868,"151":0.37594786286354065,"152":0.5703820586204529,"153":-0.23696672916412354,"154":0.19901399314403534,"155":1.1291569471359253,"156":-1.2315480709075928,"157":1.1538481712341309,"158":0.1904020607471466,"159":0.8707931637763977,"160":-0.7334601879119873,"161":2.10089111328125,"162":0.11201994121074677,"163":-0.2994525730609894,"164":-0.45391198992729187,"165":0.8218311071395874,"166":-1.1899089813232422,"167":-1.1798360347747803,"168":0.23492899537086487,"169":-0.2540133595466614,"170":-0.3585744798183441,"171":-0.6379219889640808,"172":-0.4043177664279938,"173":-1.596252679824829,"174":0.36625537276268005,"175":1.0383366346359253,"176":1.29026198387146,"177":1.1947625875473022,"178":-0.5730584859848022,"179":-0.3494430184364319,"180":0.40257343649864197,"181":-2.1077628135681152,"182":-0.18685594201087952,"183":1.3134188652038574,"184":0.7774123549461365,"185":-0.41561537981033325,"186":0.2595297396183014,"187":0.08442099392414093,"188":-0.5867010354995728,"189":0.6493989825248718,"190":0.2866324484348297,"191":-1.2272988557815552,"192":1.7681961059570312,"193":1.4639952182769775,"194":-0.3513346314430237,"195":0.4148055613040924,"196":-2.3148412704467773,"197":0.6074414253234863,"198":-0.2758044898509979,"199":0.010594419203698635,"200":1.9855945110321045,"201":-0.10481496155261993,"202":1.2339578866958618,"203":0.0054915109649300575,"204":0.045144107192754745,"205":0.15462778508663177,"206":-1.5364234447479248,"207":2.1274726390838623,"208":0.7433072924613953,"209":-0.183577299118042,"210":-0.8170874714851379,"211":0.6963451504707336,"212":-0.09935769438743591,"213":0.4939568042755127,"214":-0.6966452598571777,"215":0.06676953285932541,"216":-0.49049270153045654,"217":-1.1067800521850586,"218":-1.1591287851333618,"219":-2.8198797702789307,"220":1.1250308752059937,"221":0.3768351078033447,"222":-0.2101924568414688,"223":2.4924275875091553,"224":0.26804596185684204,"225":0.13963578641414642,"226":0.9958065748214722,"227":-0.6659746170043945,"228":0.08576507121324539,"229":0.22668585181236267,"230":-1.0257056951522827,"231":0.7777448892593384,"232":-0.16700328886508942,"233":-0.043035537004470825,"234":0.2413053959608078,"235":0.2317902147769928,"236":1.6231144666671753,"237":1.16505765914917,"238":0.007822094485163689,"239":-0.7232761979103088,"240":0.0746653750538826,"241":-0.7938634753227234,"242":-0.7814846038818359,"243":1.1308120489120483,"244":0.6094005703926086,"245":-1.887235164642334,"246":0.9199232459068298,"247":0.17102442681789398,"248":-0.007910236716270447,"249":-0.06599093228578568,"250":1.5633344650268555,"251":-0.8301103711128235,"252":0.7504582405090332,"253":-0.7881802320480347,"254":0.6051465272903442,"255":0.2321321964263916,"256":-1.1655350923538208,"257":0.3659674823284149,"258":-0.038705289363861084,"259":0.3947902321815491,"260":1.4796801805496216,"261":0.23105183243751526,"262":-0.1247079074382782,"263":0.12749476730823517,"264":-0.546776294708252,"265":1.7051117420196533,"266":0.17837391793727875,"267":0.11298515647649765,"268":0.06738323718309402,"269":-0.8485099077224731,"270":-0.1601003110408783,"271":-0.13350622355937958,"272":0.15606217086315155,"273":-0.44009554386138916,"274":-0.052840325981378555,"275":-0.20396898686885834,"276":-0.22622734308242798,"277":-0.7646735310554504,"278":1.1999627351760864,"279":0.8358157873153687,"280":-0.4805062413215637,"281":0.888897180557251,"282":-0.5596043467521667,"283":-0.5850440263748169,"284":0.4403263330459595,"285":0.8172844648361206,"286":1.545565128326416,"287":0.7644078135490417,"288":-1.1139169931411743,"289":-0.6735891103744507,"290":-0.7322353720664978,"291":1.4351693391799927,"292":0.3707820773124695,"293":-1.2323836088180542,"294":0.9583247303962708,"295":-0.9968922734260559,"296":-2.2005953788757324,"297":-0.3474125266075134,"298":0.06902381032705307,"299":-0.20532673597335815,"300":-1.0895483493804932,"301":0.8639484643936157,"302":0.9918930530548096,"303":-1.1450345516204834,"304":1.7988255023956299,"305":-0.18362516164779663,"306":-1.5187805891036987,"307":-0.4750624895095825,"308":1.2495696544647217,"309":0.0256196279078722,"310":-0.7308408617973328,"311":-0.015668587759137154,"312":-0.3657275140285492,"313":-1.6583462953567505,"314":0.01283180434256792,"315":0.7882512211799622,"316":-1.2003693580627441,"317":1.5413181781768799,"318":-1.343650221824646,"319":-0.6210287809371948,"320":-2.0105679035186768,"321":1.3801194429397583,"322":0.850176990032196,"323":-1.5086785554885864,"324":0.13414117693901062,"325":0.6528955101966858,"326":-1.0316100120544434,"327":-0.26615533232688904,"328":-0.0010163906263187528,"329":0.724254846572876,"330":-0.16110073029994965,"331":-0.30338671803474426,"332":0.7068236470222473,"333":1.010327696800232,"334":2.0278265476226807,"335":-0.830356240272522,"336":0.17493052780628204,"337":0.32425153255462646,"338":-2.0412497520446777,"339":-0.9976239800453186,"340":0.1937069147825241,"341":-0.5475946664810181,"342":-0.8810235857963562,"343":-2.0358266830444336,"344":0.8562152981758118,"345":-0.2489372342824936,"346":-0.4314836859703064,"347":0.5953924059867859,"348":0.5411108136177063,"349":-0.6760825514793396,"350":0.788070559501648,"351":0.8598117828369141,"352":0.8300450444221497,"353":1.9487708806991577,"354":1.1125863790512085,"355":1.3067286014556885,"356":0.9995939135551453,"357":-0.07073036581277847,"358":-0.06273220479488373,"359":-0.4171607196331024,"360":-0.8092135787010193,"361":-0.15174897015094757,"362":-0.6957743763923645,"363":0.8171870112419128,"364":-0.187950000166893,"365":0.3074935972690582,"366":-0.0531160831451416,"367":-2.4870827198028564,"368":0.8530111312866211,"369":0.8938993215560913,"370":-0.19873745739459991,"371":-0.9999698996543884,"372":0.715595543384552,"373":0.07031038403511047,"374":1.468863844871521,"375":-0.8116464018821716,"376":2.3737075328826904,"377":0.8907943367958069,"378":0.15741178393363953,"379":0.08411382138729095,"380":-1.6053786277770996,"381":2.2102088928222656,"382":0.9382416009902954,"383":-0.7132319211959839,"384":2.060793876647949,"385":0.41843950748443604,"386":0.4757252633571625,"387":0.4270744025707245,"388":-0.7912735939025879,"389":-0.3186810314655304,"390":-1.0825543403625488,"391":-0.12013409286737442,"392":-1.4493860006332397,"393":0.9807600378990173,"394":1.2951608896255493,"395":-0.9372674822807312,"396":0.5959514379501343,"397":-1.8527886867523193,"398":0.5272339582443237,"399":-1.5054370164871216,"400":0.5740014910697937,"401":-0.041193317621946335,"402":-0.00796034187078476,"403":1.0034688711166382,"404":-1.7119032144546509,"405":-1.3342397212982178,"406":0.8687198758125305,"407":-0.9355418682098389,"408":-1.311386227607727,"409":0.6836310625076294,"410":-0.13491199910640717,"411":-1.1410976648330688,"412":0.7533486485481262,"413":1.0065757036209106,"414":-0.0014529420295730233,"415":-0.6263063549995422,"416":0.439615935087204,"417":0.7229083180427551,"418":-0.42163151502609253,"419":0.5086183547973633,"420":0.031231898814439774,"421":-0.3075086772441864,"422":0.9788057804107666,"423":0.46849867701530457,"424":0.7059245109558105,"425":-0.3503251373767853,"426":-0.9984731078147888,"427":-0.36699822545051575,"428":-0.43633174896240234,"429":0.28781065344810486,"430":0.5068814754486084,"431":-0.4898935854434967,"432":0.7938681840896606,"433":-0.556657612323761,"434":-1.016067385673523,"435":-0.6398730278015137,"436":-1.0674277544021606,"437":-1.195324420928955,"438":0.37543338537216187,"439":0.3529261350631714,"440":-0.6856334209442139,"441":-0.1446828544139862,"442":0.8987799882888794,"443":1.4594348669052124,"444":1.5300413370132446,"445":-0.059260688722133636,"446":0.15144631266593933,"447":0.10474004596471786,"448":0.7443666458129883,"449":-0.3453375995159149,"450":-0.2759595215320587,"451":-0.6606912612915039,"452":-1.3849890232086182,"453":0.1853383481502533,"454":0.475385457277298,"455":0.11125223338603973,"456":-0.5062406063079834,"457":1.5851794481277466,"458":-0.8614707589149475,"459":-0.0742182731628418}},"inputHidden":{"rows":20,"columns":20,"weights":{"0":0.029166365042328835,"1":-1.9010553359985352,"2":0.5012845993041992,"3":-1.9320876598358154,"4":1.4151520729064941,"5":-1.2179152965545654,"6":0.10738696902990341,"7":-1.5160281658172607,"8":1.5746599435806274,"9":0.3416477143764496,"10":0.9891624450683594,"11":2.295893430709839,"12":1.7021337747573853,"13":-1.324691891670227,"14":0.28132203221321106,"15":-0.0364484004676342,"16":-1.5477105379104614,"17":-1.0745927095413208,"18":0.3389383852481842,"19":1.0300166606903076,"20":-0.22317135334014893,"21":-0.2843970060348511,"22":1.0432944297790527,"23":-0.722145140171051,"24":-1.2854174375534058,"25":0.4331326484680176,"26":-1.4048447608947754,"27":0.4981405436992645,"28":-1.0163887739181519,"29":0.14482510089874268,"30":0.7685097455978394,"31":-0.0330820195376873,"32":-1.078535556793213,"33":0.013531714677810669,"34":1.0541411638259888,"35":-0.10024642944335938,"36":0.36190691590309143,"37":-0.2749362587928772,"38":-1.0243480205535889,"39":1.3051185607910156,"40":0.7435805201530457,"41":-0.7610825896263123,"42":1.0051325559616089,"43":-1.0176198482513428,"44":1.1168711185455322,"45":-0.6557877063751221,"46":0.3387392461299896,"47":-1.3877023458480835,"48":1.0160412788391113,"49":-2.446962833404541,"50":-0.11380331963300705,"51":1.7283504009246826,"52":1.4420381784439087,"53":-0.13375326991081238,"54":-0.8777235746383667,"55":3.2349512577056885,"56":-0.6943925023078918,"57":-0.16196347773075104,"58":0.47406846284866333,"59":-0.7015991806983948,"60":0.42344149947166443,"61":-0.5631713271141052,"62":-0.2542813718318939,"63":-0.5882125496864319,"64":0.13358308374881744,"65":-0.7089783549308777,"66":-0.7477321624755859,"67":0.8165795207023621,"68":1.681962013244629,"69":2.337428331375122,"70":0.8322531580924988,"71":0.052587054669857025,"72":-0.0727454274892807,"73":-0.9365772604942322,"74":0.31768229603767395,"75":-0.739445149898529,"76":-0.5801065564155579,"77":0.12115199118852615,"78":-0.7701069116592407,"79":-0.5844671726226807,"80":0.3083142042160034,"81":2.9599061012268066,"82":-0.5024321675300598,"83":-0.2946356236934662,"84":-0.7006427645683289,"85":-1.3642678260803223,"86":2.3237266540527344,"87":-0.2861610949039459,"88":0.8373242020606995,"89":-2.045342206954956,"90":-1.1837471723556519,"91":0.0733189508318901,"92":0.5837196707725525,"93":-1.1799232959747314,"94":-0.43575993180274963,"95":-0.3377208709716797,"96":0.03457998111844063,"97":-0.7106780409812927,"98":1.2329140901565552,"99":-0.32929643988609314,"100":0.8619065284729004,"101":1.5390541553497314,"102":0.2380630373954773,"103":0.441427081823349,"104":-0.40795591473579407,"105":-0.5029688477516174,"106":-0.5292057394981384,"107":-1.061622977256775,"108":0.2728973627090454,"109":-0.33912262320518494,"110":-1.3763319253921509,"111":-0.6116119623184204,"112":-0.39199912548065186,"113":0.0371229313313961,"114":-1.3318045139312744,"115":-0.20254194736480713,"116":-0.208119198679924,"117":1.3728837966918945,"118":-1.3177522420883179,"119":-0.37258026003837585,"120":-1.247604489326477,"121":-0.7473273277282715,"122":1.1413291692733765,"123":-1.8068469762802124,"124":-1.9774041175842285,"125":0.6250338554382324,"126":-0.7210747599601746,"127":1.356562852859497,"128":-1.323148488998413,"129":-0.23951715230941772,"130":-1.3045260906219482,"131":3.209648847579956,"132":-1.9441261291503906,"133":-1.850904941558838,"134":0.08634568750858307,"135":-2.327615261077881,"136":1.4386885166168213,"137":-1.0460716485977173,"138":-0.8553596138954163,"139":2.2340919971466064,"140":0.8996032476425171,"141":-0.4078333377838135,"142":0.8030976057052612,"143":-0.3639722764492035,"144":-0.413080632686615,"145":0.10682239383459091,"146":1.1976128816604614,"147":0.1137445941567421,"148":0.009064530953764915,"149":0.40532127022743225,"150":0.7165795564651489,"151":-0.5840857625007629,"152":-0.230571448802948,"153":0.2986259460449219,"154":0.02638085000216961,"155":0.11398731172084808,"156":-0.2376617193222046,"157":-0.1175478920340538,"158":-0.7541284561157227,"159":0.9482771158218384,"160":1.5543497800827026,"161":1.170085072517395,"162":-0.4207583963871002,"163":0.9635364413261414,"164":0.3822382390499115,"165":-0.40246376395225525,"166":1.2696220874786377,"167":0.5158324241638184,"168":0.4905225336551666,"169":-0.6580631136894226,"170":0.25500115752220154,"171":-1.0711747407913208,"172":0.10536074638366699,"173":0.7996873259544373,"174":-0.33988016843795776,"175":0.37244024872779846,"176":-0.6936450004577637,"177":1.063795804977417,"178":-0.7273889780044556,"179":1.1401537656784058,"180":0.5139814615249634,"181":1.1586359739303589,"182":0.25789958238601685,"183":-0.8088722825050354,"184":-0.8927676677703857,"185":-0.4907958507537842,"186":0.03377291560173035,"187":-0.10563768446445465,"188":0.750326931476593,"189":-0.3708413243293762,"190":-0.5646790862083435,"191":0.6556676030158997,"192":-0.0550832636654377,"193":0.5248052477836609,"194":0.5447733402252197,"195":0.05021153390407562,"196":-0.2319408357143402,"197":0.2183298021554947,"198":-0.5715394616127014,"199":0.9515342116355896,"200":-0.4896661639213562,"201":0.8665738105773926,"202":1.3729426860809326,"203":0.28625431656837463,"204":0.9155381321907043,"205":-2.1083431243896484,"206":-0.5564917922019958,"207":-1.2188050746917725,"208":1.7290875911712646,"209":0.1231645792722702,"210":-0.7306537628173828,"211":0.6465128064155579,"212":1.2024104595184326,"213":-2.1846024990081787,"214":-1.33829665184021,"215":-1.256868600845337,"216":-1.855190396308899,"217":0.6735677123069763,"218":0.5045239329338074,"219":0.09937542676925659,"220":-0.38427650928497314,"221":-1.506912350654602,"222":1.9347435235977173,"223":-2.3612473011016846,"224":2.3108713626861572,"225":-1.6198660135269165,"226":-0.8920707702636719,"227":-2.8618881702423096,"228":2.365104913711548,"229":-1.563960075378418,"230":0.11519952118396759,"231":0.836491584777832,"232":2.4442520141601562,"233":-2.6861798763275146,"234":1.6640723943710327,"235":-0.3280249536037445,"236":-3.348339080810547,"237":-0.8027011156082153,"238":-0.3417418301105499,"239":1.0971239805221558,"240":-0.2533615827560425,"241":0.9184060096740723,"242":-0.10354150086641312,"243":-0.11531535536050797,"244":-0.06578759849071503,"245":0.7068254947662354,"246":-0.30124133825302124,"247":0.8694372177124023,"248":-0.4029030203819275,"249":-1.5448472499847412,"250":-1.0818885564804077,"251":0.5110393762588501,"252":-1.0344420671463013,"253":0.5883049368858337,"254":-0.3115037977695465,"255":-0.5357570648193359,"256":0.10972712934017181,"257":0.8666290044784546,"258":-1.0924537181854248,"259":1.9030663967132568,"260":0.2973645031452179,"261":0.17499303817749023,"262":2.3016316890716553,"263":-0.03264055773615837,"264":0.06567557156085968,"265":-0.08421794325113297,"266":0.34880971908569336,"267":-0.3763095438480377,"268":-0.18754862248897552,"269":0.8747328519821167,"270":0.7736522555351257,"271":-0.5412144064903259,"272":0.10624966770410538,"273":-1.5156642198562622,"274":0.06136111915111542,"275":0.48261040449142456,"276":-0.19947375357151031,"277":0.41774410009384155,"278":-1.0822213888168335,"279":0.4531387686729431,"280":-0.8897897005081177,"281":-0.30222198367118835,"282":-0.663504421710968,"283":-0.10949661582708359,"284":-0.3867528736591339,"285":0.5874553322792053,"286":-0.45322227478027344,"287":-0.135356605052948,"288":-0.2056424617767334,"289":0.39932605624198914,"290":-0.18818961083889008,"291":0.21529774367809296,"292":0.03389029577374458,"293":-0.3164304196834564,"294":0.8989583253860474,"295":-0.4329864978790283,"296":0.7474126219749451,"297":0.1010996475815773,"298":-1.0583267211914062,"299":-0.0426144003868103,"300":-0.22589437663555145,"301":-0.7624728083610535,"302":-0.3198944628238678,"303":-1.8182339668273926,"304":0.018379071727395058,"305":1.2683426141738892,"306":-0.8048765659332275,"307":2.2613301277160645,"308":-1.0192899703979492,"309":0.16795647144317627,"310":-0.8531168699264526,"311":-0.544895589351654,"312":-3.6466000080108643,"313":0.2304483950138092,"314":0.8830018043518066,"315":0.19898027181625366,"316":0.42961132526397705,"317":-1.7027705907821655,"318":-1.869752287864685,"319":1.3535114526748657,"320":0.803575873374939,"321":1.325981616973877,"322":-0.7832146883010864,"323":1.071154236793518,"324":-0.8777090311050415,"325":-0.9339167475700378,"326":-0.3833852708339691,"327":0.38019344210624695,"328":0.8359683156013489,"329":-1.5083941221237183,"330":-0.7304681539535522,"331":-1.1057335138320923,"332":0.7610443830490112,"333":0.4270994961261749,"334":-1.6909935474395752,"335":0.022931212559342384,"336":0.5947161912918091,"337":1.4982554912567139,"338":-1.6429412364959717,"339":0.09943272173404694,"340":0.3049529790878296,"341":-1.1773017644882202,"342":-0.8689325451850891,"343":-0.4484209716320038,"344":-0.04280993342399597,"345":0.2780824899673462,"346":0.4140779376029968,"347":1.2203184366226196,"348":-0.8043974041938782,"349":-0.48231709003448486,"350":0.0995795801281929,"351":0.4006618857383728,"352":-1.6286276578903198,"353":0.36128976941108704,"354":1.2755241394042969,"355":-1.0951347351074219,"356":0.579738974571228,"357":-0.31678447127342224,"358":0.027691179886460304,"359":-0.6484413743019104,"360":-0.4534069001674652,"361":1.1561741828918457,"362":1.3194962739944458,"363":1.2902121543884277,"364":0.46008938550949097,"365":-0.43223294615745544,"366":-0.017695352435112,"367":-0.2808912396430969,"368":-0.38775715231895447,"369":-0.32243162393569946,"370":0.5005061030387878,"371":-0.2605683207511902,"372":0.20347988605499268,"373":0.2178148776292801,"374":-0.9274631142616272,"375":-1.4809788465499878,"376":0.30117669701576233,"377":1.998694658279419,"378":0.06304709613323212,"379":-0.3491034507751465,"380":1.4497169256210327,"381":0.5041710138320923,"382":0.29926756024360657,"383":0.34413638710975647,"384":2.4559755325317383,"385":-1.2667591571807861,"386":0.5146863460540771,"387":-1.8186074495315552,"388":1.614835262298584,"389":-0.9775887727737427,"390":2.2420451641082764,"391":-0.12848658859729767,"392":1.7399979829788208,"393":0.06434421241283417,"394":-0.988862931728363,"395":1.2734841108322144,"396":-1.7761414051055908,"397":0.9051792621612549,"398":0.709449052810669,"399":1.325158953666687}},"inputBias":{"rows":20,"columns":1,"weights":{"0":-1.9088667631149292,"1":-0.5295518040657043,"2":-0.6413626670837402,"3":-0.39346057176589966,"4":0.10473275929689407,"5":0.14021840691566467,"6":-0.9110305905342102,"7":0.2832340896129608,"8":0.5268129110336304,"9":-0.04598407819867134,"10":-0.7296489477157593,"11":0.09857262670993805,"12":0.12493962049484253,"13":2.021001100540161,"14":-1.1552484035491943,"15":-0.5954854488372803,"16":1.9635010957717896,"17":-0.8940746188163757,"18":-1.0263375043869019,"19":-0.8816554546356201}},"forgetMatrix":{"rows":20,"columns":23,"weights":{"0":0.10502108186483383,"1":0.24837800860404968,"2":0.2774576246738434,"3":-0.5391429662704468,"4":0.4941324293613434,"5":-0.7376201748847961,"6":0.8179991245269775,"7":-0.7692973017692566,"8":1.4466936588287354,"9":0.3265799582004547,"10":1.4342803955078125,"11":1.2130922079086304,"12":0.2838779389858246,"13":0.6203914880752563,"14":0.8747931122779846,"15":-1.1149570941925049,"16":-0.5070654153823853,"17":0.1648423969745636,"18":0.020230351015925407,"19":0.23270685970783234,"20":-0.15764214098453522,"21":0.4477323591709137,"22":-1.7681641578674316,"23":-1.4626730680465698,"24":0.44049564003944397,"25":-0.08697066456079483,"26":-0.12743975222110748,"27":-0.7540909051895142,"28":0.05310811474919319,"29":-0.6079227328300476,"30":0.5117573142051697,"31":-1.773135781288147,"32":-0.8712636828422546,"33":-0.40368661284446716,"34":-0.3362147808074951,"35":1.5376890897750854,"36":-1.2718017101287842,"37":-0.34515199065208435,"38":-0.18584510684013367,"39":-1.4584089517593384,"40":-0.6059859991073608,"41":-0.30157628655433655,"42":0.03657272458076477,"43":-0.03144405782222748,"44":-0.3229371905326843,"45":0.47316837310791016,"46":-1.1263930797576904,"47":-1.1614117622375488,"48":1.1668930053710938,"49":1.1801437139511108,"50":-0.25142955780029297,"51":0.2982501685619354,"52":-0.5697205066680908,"53":0.5197764039039612,"54":1.1299482583999634,"55":2.347303867340088,"56":1.5696535110473633,"57":0.8204699754714966,"58":0.4651874899864197,"59":-0.009245358407497406,"60":0.6692453622817993,"61":0.08720221370458603,"62":-0.5601330399513245,"63":-2.5796103477478027,"64":2.543916940689087,"65":-0.4082648754119873,"66":-0.7084873914718628,"67":0.2947930693626404,"68":-0.6147515177726746,"69":0.8670447468757629,"70":-1.7516016960144043,"71":1.2054177522659302,"72":0.39593058824539185,"73":-1.0250794887542725,"74":0.9395249485969543,"75":-0.6084878444671631,"76":-0.24507102370262146,"77":0.5869544148445129,"78":1.1959503889083862,"79":-0.6554741859436035,"80":0.31460750102996826,"81":0.3812069892883301,"82":0.21089111268520355,"83":0.05284181982278824,"84":0.5019685626029968,"85":-0.5917730331420898,"86":-1.498081922531128,"87":1.3280317783355713,"88":-1.3204768896102905,"89":-0.15271978080272675,"90":-0.4956939220428467,"91":0.002336004748940468,"92":-0.3331412672996521,"93":-0.2557487189769745,"94":0.4879344403743744,"95":0.32959043979644775,"96":-0.565772533416748,"97":0.03537663072347641,"98":-2.0980224609375,"99":-2.023740530014038,"100":-0.4698565900325775,"101":1.4270167350769043,"102":-0.6088813543319702,"103":-0.09534561634063721,"104":1.0464839935302734,"105":-0.011300025507807732,"106":-0.41953474283218384,"107":2.09554386138916,"108":-0.7660040259361267,"109":-0.369881272315979,"110":0.651386559009552,"111":-0.8453266024589539,"112":-0.7774747610092163,"113":0.3684651255607605,"114":-0.23707439005374908,"115":-0.9623215794563293,"116":-0.23521842062473297,"117":0.30571451783180237,"118":0.4618544280529022,"119":-0.6968041658401489,"120":0.9867100715637207,"121":0.03549158573150635,"122":0.5361703634262085,"123":-1.1203064918518066,"124":0.0487639456987381,"125":-2.3128838539123535,"126":-1.456038236618042,"127":-0.015160219743847847,"128":-0.4707561731338501,"129":-0.7983619570732117,"130":-1.2220878601074219,"131":0.8637447357177734,"132":-0.38623544573783875,"133":0.39556023478507996,"134":-0.09056351333856583,"135":-0.00007304111204575747,"136":-0.47154977917671204,"137":0.9397076368331909,"138":-0.22076329588890076,"139":-0.14136473834514618,"140":0.21123310923576355,"141":0.635686993598938,"142":-0.29849573969841003,"143":0.9119701385498047,"144":-0.5747906565666199,"145":-1.3595482110977173,"146":0.1166362538933754,"147":1.295255184173584,"148":-1.0825645923614502,"149":-0.7068306803703308,"150":-0.2136070877313614,"151":-0.0749911516904831,"152":-0.1050252914428711,"153":0.48374074697494507,"154":0.39906713366508484,"155":-0.5828494429588318,"156":0.6185014843940735,"157":-0.2827932834625244,"158":-0.8344899415969849,"159":-0.3484170734882355,"160":-0.3103736340999603,"161":-1.4830975532531738,"162":-0.41850242018699646,"163":0.24543753266334534,"164":0.2200654000043869,"165":-0.5967887043952942,"166":1.6651474237442017,"167":-0.24593131244182587,"168":-0.8092048764228821,"169":-0.4948142170906067,"170":0.35709452629089355,"171":-1.4801008701324463,"172":-1.6551381349563599,"173":-0.8349712491035461,"174":-0.5825030207633972,"175":-1.337231159210205,"176":-1.1981151103973389,"177":1.124387264251709,"178":-0.8003479838371277,"179":0.7253490686416626,"180":-0.4008328914642334,"181":0.35888147354125977,"182":0.13092364370822906,"183":0.6600885987281799,"184":-1.189422607421875,"185":-1.716491937637329,"186":2.322563409805298,"187":0.31267836689949036,"188":-2.1503043174743652,"189":1.0524194240570068,"190":-1.2453097105026245,"191":-1.4506824016571045,"192":-0.7993038296699524,"193":0.9735674262046814,"194":-0.6864729523658752,"195":-0.10500553250312805,"196":0.9211130738258362,"197":-0.8487246632575989,"198":-0.7508658170700073,"199":1.0685644149780273,"200":0.151042640209198,"201":-1.907458782196045,"202":1.7864816188812256,"203":-1.9834425449371338,"204":-0.5237269401550293,"205":0.7741562128067017,"206":0.337155282497406,"207":0.34578970074653625,"208":-0.8756901621818542,"209":0.8317039608955383,"210":0.6141933798789978,"211":-0.6303510069847107,"212":0.5716643333435059,"213":-0.7796404361724854,"214":-1.5881683826446533,"215":-0.3452378809452057,"216":0.9033920168876648,"217":-0.9352872967720032,"218":-0.9479625225067139,"219":0.08195025473833084,"220":-0.3073956072330475,"221":-0.5990694165229797,"222":0.6487732529640198,"223":0.6802499890327454,"224":-0.5533907413482666,"225":0.7501290440559387,"226":-0.864292562007904,"227":-1.7189899682998657,"228":0.6504679918289185,"229":0.24909354746341705,"230":-0.15755437314510345,"231":-1.3217233419418335,"232":0.7739871740341187,"233":1.15430748462677,"234":-1.0654634237289429,"235":0.4166974425315857,"236":-1.339783787727356,"237":0.06525716930627823,"238":0.909777045249939,"239":1.2764695882797241,"240":0.028422510251402855,"241":0.41711506247520447,"242":0.9872002005577087,"243":-0.9494751691818237,"244":-0.6773797869682312,"245":1.517572045326233,"246":-0.9532483220100403,"247":-1.4677730798721313,"248":1.0866987705230713,"249":-0.9932900667190552,"250":-0.9170830845832825,"251":0.6626741886138916,"252":-0.942245602607727,"253":-0.22251413762569427,"254":-0.13138453662395477,"255":0.055753182619810104,"256":-0.13614939153194427,"257":-0.700480043888092,"258":-0.002110736910253763,"259":0.26850178837776184,"260":-1.4093044996261597,"261":0.7067732214927673,"262":0.2633502781391144,"263":-2.480713129043579,"264":-1.2926565408706665,"265":-0.7802945375442505,"266":-0.5640846490859985,"267":-0.2502863109111786,"268":-0.5203732252120972,"269":1.1444741487503052,"270":0.9735202193260193,"271":-0.44923093914985657,"272":-0.336150586605072,"273":0.032905686646699905,"274":1.5240590572357178,"275":-0.7173169255256653,"276":-1.0112693309783936,"277":-1.1214725971221924,"278":1.3725807666778564,"279":0.8060477375984192,"280":-1.2332241535186768,"281":0.9809050559997559,"282":-0.6575387120246887,"283":-0.7662034034729004,"284":-0.8409301042556763,"285":1.0845006704330444,"286":-0.6583622694015503,"287":-0.3576999306678772,"288":0.21461422741413116,"289":-0.9297076463699341,"290":-1.1424543857574463,"291":0.14381130039691925,"292":0.2553131580352783,"293":-1.267365574836731,"294":1.4522465467453003,"295":-1.38913893699646,"296":-0.12749813497066498,"297":-0.7195001244544983,"298":0.7642526626586914,"299":0.6104509830474854,"300":0.39814141392707825,"301":-1.5968575477600098,"302":0.8211186528205872,"303":0.7021369934082031,"304":-2.1065080165863037,"305":0.4862624406814575,"306":0.1819983422756195,"307":-1.1953619718551636,"308":-0.9860591292381287,"309":-0.2232106775045395,"310":-0.7445670962333679,"311":-0.6620708703994751,"312":0.8600383996963501,"313":1.0650807619094849,"314":0.3821337819099426,"315":-1.092893123626709,"316":2.2287349700927734,"317":-1.5741316080093384,"318":0.08844465762376785,"319":0.6365033388137817,"320":-1.3230572938919067,"321":1.8403375148773193,"322":0.11749941855669022,"323":0.41876131296157837,"324":-0.20863346755504608,"325":-0.14944972097873688,"326":0.24257305264472961,"327":0.15290330350399017,"328":-0.9314103722572327,"329":-0.3872296214103699,"330":-1.7975127696990967,"331":-0.6223185658454895,"332":-1.1523486375808716,"333":-1.0367066860198975,"334":0.024782972410321236,"335":0.042054612189531326,"336":-0.04610927402973175,"337":0.4774608910083771,"338":0.5006333589553833,"339":0.5432789325714111,"340":-0.6389076113700867,"341":0.10116409510374069,"342":0.15462006628513336,"343":0.18665193021297455,"344":1.3721473217010498,"345":-0.5644192099571228,"346":-1.142782211303711,"347":0.9986370801925659,"348":0.8262906670570374,"349":-0.7075943946838379,"350":1.4334317445755005,"351":-0.7032400965690613,"352":-0.5135734677314758,"353":-0.07378295063972473,"354":1.045747995376587,"355":-0.8462703824043274,"356":-0.11449024826288223,"357":-0.511496901512146,"358":-0.3764289617538452,"359":-0.1220545545220375,"360":0.8007599115371704,"361":0.5983527302742004,"362":-0.8557263612747192,"363":1.5404070615768433,"364":-1.6416754722595215,"365":-2.272357702255249,"366":-0.9736062288284302,"367":1.139504313468933,"368":-0.4456527829170227,"369":-0.6879693865776062,"370":1.0392183065414429,"371":1.333061933517456,"372":-0.8119691014289856,"373":0.12735171616077423,"374":-1.3491989374160767,"375":-0.5796301364898682,"376":-0.799605131149292,"377":0.706916093826294,"378":-0.2558888792991638,"379":-0.20548108220100403,"380":0.814029335975647,"381":-1.5872704982757568,"382":-0.9571056365966797,"383":0.20598682761192322,"384":-0.3274794816970825,"385":-1.0907305479049683,"386":0.8307528495788574,"387":-0.7702602744102478,"388":-0.8705171942710876,"389":1.0372370481491089,"390":-0.11803925037384033,"391":1.4124330282211304,"392":-0.4994722306728363,"393":-0.3724573254585266,"394":-0.7078348398208618,"395":0.004429641179740429,"396":-1.2615805864334106,"397":-2.537061929702759,"398":-0.1290842890739441,"399":-2.0047144889831543,"400":-0.555659294128418,"401":-0.03741254657506943,"402":0.8204595446586609,"403":1.1519081592559814,"404":-0.4181547462940216,"405":0.15917052328586578,"406":2.7614970207214355,"407":-1.1285521984100342,"408":0.539618194103241,"409":-0.7267972230911255,"410":0.08111241459846497,"411":-0.5464910268783569,"412":1.8696200847625732,"413":1.1973650455474854,"414":-0.1641310453414917,"415":-1.2613954544067383,"416":1.2769768238067627,"417":1.0487282276153564,"418":-1.3566226959228516,"419":0.0011603080201894045,"420":-1.3189705610275269,"421":-1.4784477949142456,"422":0.7346748113632202,"423":1.2897125482559204,"424":-0.08277096599340439,"425":-0.4246686100959778,"426":0.3495328426361084,"427":-1.2218555212020874,"428":-0.02794654108583927,"429":-0.0838477686047554,"430":0.060125261545181274,"431":-1.4389121532440186,"432":1.2094388008117676,"433":-1.0730477571487427,"434":-1.1790332794189453,"435":0.8098995089530945,"436":-0.4551231861114502,"437":0.45492398738861084,"438":0.7766416668891907,"439":0.31430020928382874,"440":-0.12370123714208603,"441":0.9462335705757141,"442":0.09356000274419785,"443":-0.9034581184387207,"444":-0.2178819477558136,"445":-1.779916524887085,"446":-0.13948069512844086,"447":-2.43839430809021,"448":-2.05676531791687,"449":-0.8962514400482178,"450":1.0826363563537598,"451":0.5789977312088013,"452":0.4338529706001282,"453":1.2745838165283203,"454":-0.6254984140396118,"455":0.3337559103965759,"456":0.27326393127441406,"457":-0.7740889191627502,"458":0.11894368380308151,"459":2.3177337646484375}},"forgetHidden":{"rows":20,"columns":20,"weights":{"0":-0.30574458837509155,"1":0.7818114161491394,"2":0.24203021824359894,"3":0.37323030829429626,"4":-1.2614450454711914,"5":0.7867957949638367,"6":-0.38093656301498413,"7":0.7339017391204834,"8":-0.6156477332115173,"9":0.029661472886800766,"10":0.05815892294049263,"11":0.42690712213516235,"12":-0.6345415711402893,"13":1.7682671546936035,"14":0.012300456874072552,"15":0.9734072089195251,"16":0.9092292785644531,"17":0.37787970900535583,"18":-1.158159613609314,"19":0.892860472202301,"20":-0.09603451192378998,"21":-2.1948843002319336,"22":-0.5433314442634583,"23":-1.6155213117599487,"24":-1.4251710176467896,"25":0.29640111327171326,"26":1.2246395349502563,"27":1.393093228340149,"28":-0.15859204530715942,"29":1.2187823057174683,"30":0.45994633436203003,"31":1.2065526247024536,"32":-1.3322842121124268,"33":0.519100546836853,"34":1.254065752029419,"35":1.2139029502868652,"36":0.756641685962677,"37":-2.2604522705078125,"38":-1.5257405042648315,"39":-2.046494483947754,"40":-0.6311172246932983,"41":-0.7362791299819946,"42":0.8444238305091858,"43":-0.15440087020397186,"44":-1.101112723350525,"45":-0.9587375521659851,"46":-0.38490816950798035,"47":0.37850213050842285,"48":-0.0046190135180950165,"49":0.0846443772315979,"50":0.45866361260414124,"51":-0.21581460535526276,"52":-0.018482979387044907,"53":-0.3680548667907715,"54":0.015623273327946663,"55":0.36499759554862976,"56":-0.12118799239397049,"57":-0.19606852531433105,"58":0.05681706219911575,"59":0.6266926527023315,"60":0.7065485715866089,"61":0.22308003902435303,"62":-1.4706107378005981,"63":0.31555992364883423,"64":-0.036944739520549774,"65":-1.104936122894287,"66":0.4850896894931793,"67":-1.3900700807571411,"68":0.8879950046539307,"69":-0.8744655847549438,"70":2.2259159088134766,"71":-1.32639741897583,"72":0.836564838886261,"73":-1.326816201210022,"74":-0.2529776692390442,"75":0.547564685344696,"76":-0.5119602084159851,"77":-0.028700856491923332,"78":1.269167184829712,"79":-2.606393575668335,"80":0.1541801542043686,"81":-0.4191564619541168,"82":-0.6469712853431702,"83":1.0196641683578491,"84":-0.567234218120575,"85":0.6330791115760803,"86":-0.30673947930336,"87":1.0788853168487549,"88":-0.8523127436637878,"89":0.11425197124481201,"90":-0.5120694637298584,"91":-1.0200278759002686,"92":-0.7955385446548462,"93":0.9728332161903381,"94":0.9634361267089844,"95":-0.6894779205322266,"96":0.6100059151649475,"97":-0.7248669266700745,"98":-0.20824956893920898,"99":0.2311047911643982,"100":0.564548671245575,"101":0.05472603067755699,"102":-0.7675061821937561,"103":0.17120344936847687,"104":0.3573155105113983,"105":-1.2229639291763306,"106":0.20601409673690796,"107":-1.2648537158966064,"108":1.1891059875488281,"109":-0.7060501575469971,"110":0.838463306427002,"111":0.22274895012378693,"112":0.5543512105941772,"113":-0.8271597623825073,"114":0.05685029551386833,"115":-0.811879575252533,"116":-0.6156373620033264,"117":0.3956772983074188,"118":0.49287694692611694,"119":0.2219092696905136,"120":-0.030674995854496956,"121":2.043252468109131,"122":-0.4095888137817383,"123":0.8927204608917236,"124":-0.5003441572189331,"125":0.47463300824165344,"126":-0.32512930035591125,"127":0.42083048820495605,"128":-0.2079342156648636,"129":0.251517653465271,"130":-0.26371532678604126,"131":0.41940993070602417,"132":0.06742759793996811,"133":0.3497813940048218,"134":-0.274311900138855,"135":-0.039104677736759186,"136":0.0007686435128562152,"137":1.1543986797332764,"138":-0.6606324911117554,"139":0.6505005359649658,"140":0.04223779961466789,"141":0.7018976807594299,"142":0.1373419165611267,"143":0.4982773959636688,"144":-0.08417977392673492,"145":-0.10847306251525879,"146":-0.05314677581191063,"147":0.12854696810245514,"148":0.16289950907230377,"149":-0.3840140700340271,"150":0.28842657804489136,"151":0.18387921154499054,"152":0.10049442201852798,"153":-0.06552623212337494,"154":0.10141117870807648,"155":-0.999427855014801,"156":-0.13365450501441956,"157":0.2636360228061676,"158":0.49494171142578125,"159":-0.12609733641147614,"160":-1.3392558097839355,"161":0.8197644948959351,"162":0.015057776123285294,"163":1.4307277202606201,"164":-1.1356027126312256,"165":-0.1683000773191452,"166":-1.6830015182495117,"167":0.0356886051595211,"168":-0.15228374302387238,"169":0.7521517276763916,"170":-1.4749109745025635,"171":-0.49011462926864624,"172":0.06032423675060272,"173":-0.8264179825782776,"174":-0.6167697310447693,"175":-0.2997966706752777,"176":0.19907738268375397,"177":1.1085835695266724,"178":-0.905773401260376,"179":-0.1701284795999527,"180":0.22765953838825226,"181":0.31612125039100647,"182":0.1783558428287506,"183":0.2613105773925781,"184":0.5810919404029846,"185":-0.7099892497062683,"186":0.23072898387908936,"187":-1.2383884191513062,"188":0.7742904424667358,"189":0.09227214008569717,"190":0.15225441753864288,"191":0.9080830812454224,"192":-0.02277594804763794,"193":-0.17730458080768585,"194":1.0807071924209595,"195":0.29222366213798523,"196":-1.4136648178100586,"197":-0.8417155146598816,"198":0.1517929583787918,"199":0.7214415073394775,"200":-0.15534032881259918,"201":-0.5156928896903992,"202":-0.7417370676994324,"203":-0.09434492141008377,"204":-1.0321929454803467,"205":0.751480758190155,"206":-0.7036235928535461,"207":0.9222282767295837,"208":-1.070594072341919,"209":-1.7836369276046753,"210":0.5703018307685852,"211":-0.685149073600769,"212":-1.2890889644622803,"213":1.3349275588989258,"214":2.6089489459991455,"215":0.5471147298812866,"216":1.0694242715835571,"217":-0.4572010338306427,"218":-1.167283535003662,"219":0.5155633687973022,"220":0.31200310587882996,"221":0.04125349968671799,"222":0.836741030216217,"223":-0.0315864272415638,"224":-0.528123676776886,"225":0.00648896349593997,"226":-0.037936363369226456,"227":0.11042411625385284,"228":-0.07795565575361252,"229":-0.445096492767334,"230":0.9132734537124634,"231":-0.043295491486787796,"232":-0.013738427311182022,"233":-1.569515347480774,"234":0.9275705218315125,"235":-0.27761217951774597,"236":-0.014261593110859394,"237":-0.045304231345653534,"238":-0.42452603578567505,"239":-0.4533507525920868,"240":-0.2671169936656952,"241":0.7892903685569763,"242":0.06559775024652481,"243":0.4065971076488495,"244":-0.524101734161377,"245":0.2789669334888458,"246":-0.6100398302078247,"247":0.18823324143886566,"248":0.16968445479869843,"249":-0.02236209250986576,"250":-0.664018452167511,"251":-0.3571557104587555,"252":0.26314419507980347,"253":0.01659204065799713,"254":-0.3013383150100708,"255":0.1397361159324646,"256":-0.2359328716993332,"257":0.5145424604415894,"258":-0.3010561466217041,"259":0.15464793145656586,"260":0.5896052122116089,"261":-1.5023329257965088,"262":-0.17390604317188263,"263":-1.4682977199554443,"264":-0.6423513889312744,"265":0.5577031373977661,"266":1.2943170070648193,"267":0.24830150604248047,"268":-1.548200011253357,"269":0.8295682668685913,"270":0.46916648745536804,"271":1.7316244840621948,"272":-0.17741890251636505,"273":-0.6556717753410339,"274":1.4339072704315186,"275":0.2994333803653717,"276":1.6731032133102417,"277":-1.3640273809432983,"278":-0.5901656150817871,"279":0.48110732436180115,"280":-0.33608278632164,"281":0.3446647822856903,"282":-1.270236611366272,"283":0.9058058857917786,"284":-0.5537934303283691,"285":0.4130501449108124,"286":-0.4823419451713562,"287":0.19231350719928741,"288":-0.45135679841041565,"289":0.8309910893440247,"290":0.3177137076854706,"291":0.4268427789211273,"292":-0.49710604548454285,"293":-2.9477086067199707,"294":-0.8649581074714661,"295":-4.4337944984436035,"296":-0.6673083901405334,"297":0.6371188163757324,"298":-2.736692190170288,"299":-2.43684983253479,"300":0.07190053910017014,"301":1.1759648323059082,"302":0.09586583077907562,"303":1.1513521671295166,"304":-0.3191753029823303,"305":-1.4717345237731934,"306":0.09639755636453629,"307":-0.7604648470878601,"308":1.3513425588607788,"309":-0.38329818844795227,"310":-0.7435307502746582,"311":-0.5764450430870056,"312":1.0896813869476318,"313":-0.9362277984619141,"314":-0.5731143951416016,"315":0.5343323945999146,"316":-1.0563260316848755,"317":1.6076589822769165,"318":0.8075069189071655,"319":-0.48443037271499634,"320":-0.8174660801887512,"321":0.7598437070846558,"322":-0.3201517164707184,"323":-0.056212879717350006,"324":-0.7551493644714355,"325":0.6367614269256592,"326":-0.8296027779579163,"327":0.7034306526184082,"328":-0.6757731437683105,"329":-0.28447020053863525,"330":-0.6346143484115601,"331":0.10423412919044495,"332":-0.07955188304185867,"333":0.6407646536827087,"334":-1.0710899829864502,"335":0.31008806824684143,"336":0.6279187202453613,"337":1.1192970275878906,"338":-0.23622772097587585,"339":-0.3543681502342224,"340":0.4075806438922882,"341":-0.8187711238861084,"342":-1.5415304899215698,"343":-0.5871231555938721,"344":-0.4173643887042999,"345":1.17058527469635,"346":0.9126623272895813,"347":0.8149003982543945,"348":0.25021451711654663,"349":-1.642816185951233,"350":1.0196806192398071,"351":-0.45622727274894714,"352":-0.16100598871707916,"353":-1.734463095664978,"354":1.072420358657837,"355":-0.6885450482368469,"356":-0.6420223116874695,"357":-0.9153830409049988,"358":-0.8426533937454224,"359":-2.5737011432647705,"360":-1.0298575162887573,"361":0.47154274582862854,"362":-0.45673656463623047,"363":0.6144441962242126,"364":-0.6947469711303711,"365":0.7705861926078796,"366":-0.6581264138221741,"367":0.4252513647079468,"368":-0.6351478099822998,"369":-0.028107376769185066,"370":-0.4294832646846771,"371":0.2839847803115845,"372":0.05804716795682907,"373":0.8222177624702454,"374":-0.32735371589660645,"375":-0.5293184518814087,"376":0.6529261469841003,"377":0.7253750562667847,"378":0.34438908100128174,"379":0.01021328754723072,"380":0.17248311638832092,"381":0.11228081583976746,"382":-0.06753072887659073,"383":0.12710995972156525,"384":-0.4016900062561035,"385":-0.40332522988319397,"386":-0.06839378923177719,"387":0.36425018310546875,"388":0.42829594016075134,"389":0.37758544087409973,"390":-1.3224049806594849,"391":0.37667691707611084,"392":0.13783402740955353,"393":-0.6948952674865723,"394":-0.436535120010376,"395":-1.654137134552002,"396":-0.5595612525939941,"397":0.46277451515197754,"398":-0.7652175426483154,"399":-0.11395582556724548}},"forgetBias":{"rows":20,"columns":1,"weights":{"0":0,"1":0,"2":0,"3":0,"4":0,"5":0,"6":0,"7":0,"8":0,"9":0,"10":0,"11":0,"12":0,"13":0,"14":0,"15":0,"16":0,"17":0,"18":0,"19":0}},"outputMatrix":{"rows":20,"columns":23,"weights":{"0":1.4173320531845093,"1":0.7058417201042175,"2":-0.21511557698249817,"3":-0.011893597431480885,"4":1.3711025714874268,"5":-0.9996789693832397,"6":-0.1692243218421936,"7":-1.0742063522338867,"8":0.9686592817306519,"9":-0.26157015562057495,"10":-0.05909133329987526,"11":-0.9171783924102783,"12":-2.3642385005950928,"13":1.4373606443405151,"14":1.5110809803009033,"15":-0.041173242032527924,"16":1.4184222221374512,"17":0.2453620284795761,"18":-0.791196346282959,"19":0.4237983822822571,"20":-0.2639443576335907,"21":0.5036656856536865,"22":-0.9967475533485413,"23":-0.36481812596321106,"24":-0.6907324194908142,"25":0.3321912884712219,"26":0.3517179489135742,"27":-1.3119608163833618,"28":-0.37586092948913574,"29":-0.6711562871932983,"30":0.5841016173362732,"31":-1.810748815536499,"32":0.30388742685317993,"33":1.328331708908081,"34":0.5657029747962952,"35":0.9176631569862366,"36":-2.527855157852173,"37":-1.9843580722808838,"38":0.11306460201740265,"39":-1.1636083126068115,"40":-0.7177475690841675,"41":0.6552306413650513,"42":-0.5220499038696289,"43":-0.35950347781181335,"44":0.17049676179885864,"45":-0.21859025955200195,"46":-0.6537417769432068,"47":-1.3176189661026,"48":1.1834789514541626,"49":1.386691927909851,"50":-0.15266025066375732,"51":0.6066890358924866,"52":-0.8744162917137146,"53":0.6398439407348633,"54":-0.9157994389533997,"55":0.6069591641426086,"56":0.7672245502471924,"57":-0.14355136454105377,"58":0.9327893257141113,"59":-0.30970117449760437,"60":0.01956631988286972,"61":0.6528540849685669,"62":-1.5971215963363647,"63":-1.4441967010498047,"64":1.0058504343032837,"65":-1.0557897090911865,"66":-0.2702515721321106,"67":-1.3940309286117554,"68":0.8504277467727661,"69":-1.2837508916854858,"70":-0.44401052594184875,"71":0.004731330089271069,"72":0.8923888802528381,"73":-0.6841549277305603,"74":-0.20782852172851562,"75":-0.14368756115436554,"76":1.0833029747009277,"77":-0.33919206261634827,"78":0.19194594025611877,"79":1.8777135610580444,"80":1.2801017761230469,"81":1.7557921409606934,"82":-0.7714954614639282,"83":-0.6773452162742615,"84":0.6327342391014099,"85":-1.7483322620391846,"86":-0.1938742846250534,"87":-0.24971821904182434,"88":-0.5093712210655212,"89":0.28903159499168396,"90":-0.09225683659315109,"91":-0.2217695564031601,"92":0.03386952355504036,"93":-0.21704813838005066,"94":0.7318322658538818,"95":-0.5135786533355713,"96":-0.03261681646108627,"97":0.7904823422431946,"98":0.3224206566810608,"99":0.4243409335613251,"100":2.228224754333496,"101":0.4507233500480652,"102":0.2560904920101166,"103":0.5042904019355774,"104":-1.79705810546875,"105":-0.23696374893188477,"106":-0.1937001794576645,"107":0.5082669854164124,"108":1.2497012615203857,"109":-1.1409720182418823,"110":0.7408053278923035,"111":0.17626091837882996,"112":-0.6538434624671936,"113":0.43693533539772034,"114":-1.5136520862579346,"115":0.28738832473754883,"116":-0.40189722180366516,"117":0.23816516995429993,"118":-0.16452769935131073,"119":0.16756194829940796,"120":0.720163881778717,"121":1.6547189950942993,"122":0.4021874666213989,"123":-1.421383261680603,"124":-1.2152373790740967,"125":-1.0774794816970825,"126":0.058827053755521774,"127":-1.5844769477844238,"128":0.11497192829847336,"129":-0.31337904930114746,"130":-0.5591716766357422,"131":1.3166921138763428,"132":1.1778435707092285,"133":-0.8618381023406982,"134":-0.36710184812545776,"135":-0.332622230052948,"136":-0.5983131527900696,"137":1.396242618560791,"138":2.053784132003784,"139":0.10001654177904129,"140":-0.07903683185577393,"141":-0.4633306562900543,"142":1.9676086902618408,"143":-0.7235015630722046,"144":-0.900810956954956,"145":-0.08857305347919464,"146":0.7100355625152588,"147":-0.12020125240087509,"148":-0.27497541904449463,"149":-0.08177217096090317,"150":-1.2588491439819336,"151":1.431188941001892,"152":1.9241647720336914,"153":1.2421185970306396,"154":-0.03182251378893852,"155":0.20760910212993622,"156":-0.4891290068626404,"157":0.24324776232242584,"158":-0.2430918663740158,"159":1.3370341062545776,"160":-0.5235898494720459,"161":-0.13007324934005737,"162":0.45624682307243347,"163":-0.2830604612827301,"164":-0.32975101470947266,"165":0.8855463266372681,"166":-0.2796010375022888,"167":0.4682936668395996,"168":0.8790677189826965,"169":0.32198721170425415,"170":-0.2242276817560196,"171":1.1291288137435913,"172":0.23328019678592682,"173":-2.2206637859344482,"174":1.0013245344161987,"175":0.5666905045509338,"176":-0.7416783571243286,"177":2.1803646087646484,"178":-0.10282927751541138,"179":0.20507292449474335,"180":0.21488693356513977,"181":-0.8893066048622131,"182":-0.3049984574317932,"183":0.2819546163082123,"184":1.557779312133789,"185":0.3510374426841736,"186":0.09776739776134491,"187":0.5728310346603394,"188":0.7980519533157349,"189":-0.4925524592399597,"190":-0.4307609498500824,"191":-1.3764896392822266,"192":0.4182901978492737,"193":1.132395625114441,"194":-1.0060333013534546,"195":-1.5412331819534302,"196":-4.025904178619385,"197":0.9449841976165771,"198":0.5660151839256287,"199":-0.659916877746582,"200":3.707125663757324,"201":0.4566110372543335,"202":0.06820551306009293,"203":0.5237707495689392,"204":-0.951377809047699,"205":0.8628496527671814,"206":-0.2333296537399292,"207":0.005831418093293905,"208":-0.627556324005127,"209":0.31810322403907776,"210":0.6077209115028381,"211":-0.6775447130203247,"212":0.453535795211792,"213":0.8806597590446472,"214":2.015410900115967,"215":-0.15433837473392487,"216":-0.4189823865890503,"217":-0.857763946056366,"218":-0.5090528726577759,"219":0.13909412920475006,"220":-1.1238154172897339,"221":-0.46699830889701843,"222":-1.2163928747177124,"223":-0.27369678020477295,"224":0.10263219475746155,"225":0.09645665436983109,"226":-0.34550631046295166,"227":0.40811803936958313,"228":-2.2478058338165283,"229":1.0925606489181519,"230":-0.5200828909873962,"231":0.21987293660640717,"232":0.31495532393455505,"233":0.3171674907207489,"234":-0.22180582582950592,"235":-0.0884222686290741,"236":-0.8155504465103149,"237":0.4423878788948059,"238":0.590237021446228,"239":0.5474852919578552,"240":0.5156546235084534,"241":0.3187081217765808,"242":0.10227671265602112,"243":-1.131797194480896,"244":-0.33641353249549866,"245":0.08882291615009308,"246":-1.0812304019927979,"247":-1.1160433292388916,"248":0.3271198570728302,"249":0.20753872394561768,"250":-0.875839114189148,"251":0.7402845621109009,"252":-0.8106546998023987,"253":0.06530511379241943,"254":-1.661564588546753,"255":1.013431429862976,"256":1.1187613010406494,"257":-0.9646698832511902,"258":0.797895073890686,"259":-1.1065001487731934,"260":-0.3126174211502075,"261":0.8196530938148499,"262":1.5051867961883545,"263":0.30702126026153564,"264":0.1605052947998047,"265":0.30742716789245605,"266":-0.5511221885681152,"267":-0.709770143032074,"268":1.2578864097595215,"269":-0.48244449496269226,"270":-1.1556681394577026,"271":0.6764334440231323,"272":-1.8623751401901245,"273":-0.9191914796829224,"274":-1.0639591217041016,"275":0.3059116005897522,"276":1.0480610132217407,"277":-0.32573533058166504,"278":0.37566086649894714,"279":0.3768359422683716,"280":0.44826266169548035,"281":-0.4516026973724365,"282":-0.7012475728988647,"283":0.6924654841423035,"284":0.43117308616638184,"285":0.10890074819326401,"286":0.4478897452354431,"287":-0.9504574537277222,"288":-2.4448368549346924,"289":0.408436119556427,"290":0.20153556764125824,"291":0.24633535742759705,"292":1.6747052669525146,"293":-0.5130544900894165,"294":0.562427818775177,"295":-0.2502308785915375,"296":-2.3438990116119385,"297":-1.0642482042312622,"298":0.7811930775642395,"299":1.061977744102478,"300":-1.230541706085205,"301":-0.05805404484272003,"302":1.242924451828003,"303":-0.42468196153640747,"304":0.21235737204551697,"305":0.7998543977737427,"306":-1.659981369972229,"307":0.07969048619270325,"308":0.23336778581142426,"309":0.7893617749214172,"310":-0.335096150636673,"311":-0.7986370921134949,"312":-0.39756840467453003,"313":-0.2490793913602829,"314":-0.6676849722862244,"315":0.9628694653511047,"316":0.21710026264190674,"317":-0.21695086359977722,"318":-0.5655024647712708,"319":-1.3166885375976562,"320":-0.7020427584648132,"321":0.3741052746772766,"322":0.7602053880691528,"323":-2.093648672103882,"324":0.27797937393188477,"325":0.16120551526546478,"326":-0.5378108620643616,"327":0.6114519238471985,"328":-0.9433822631835938,"329":-1.6993999481201172,"330":0.5987316370010376,"331":1.0791397094726562,"332":0.8869129419326782,"333":0.6624486446380615,"334":-0.9285905957221985,"335":-0.07444571703672409,"336":-0.02675687149167061,"337":0.6739611029624939,"338":1.5353429317474365,"339":-0.7537500858306885,"340":0.5405275821685791,"341":-1.823101282119751,"342":-1.7924295663833618,"343":-0.7427610754966736,"344":0.28931763768196106,"345":0.06054043397307396,"346":0.9737719893455505,"347":-0.368964821100235,"348":-0.05715363100171089,"349":0.9384208917617798,"350":-0.6397323608398438,"351":-1.4547021389007568,"352":2.604583740234375,"353":1.053483009338379,"354":0.32951217889785767,"355":0.7437590956687927,"356":-0.27973541617393494,"357":-0.45538032054901123,"358":0.6447339057922363,"359":1.447169303894043,"360":1.5237869024276733,"361":0.02497771754860878,"362":-1.154231309890747,"363":0.36131802201271057,"364":0.3419802486896515,"365":-1.3836861848831177,"366":0.3538628816604614,"367":-0.7123618125915527,"368":2.5408976078033447,"369":0.11747221648693085,"370":-0.4255248010158539,"371":0.12214488536119461,"372":0.49553072452545166,"373":-1.1559778451919556,"374":-0.5997889041900635,"375":-1.5704787969589233,"376":-0.6318660974502563,"377":0.20516005158424377,"378":-0.2495863437652588,"379":0.20705002546310425,"380":-1.6147809028625488,"381":1.130929708480835,"382":0.8093177080154419,"383":0.4868498742580414,"384":0.3117856979370117,"385":1.3847688436508179,"386":-0.9743232727050781,"387":0.9373870491981506,"388":-1.9361979961395264,"389":0.13780701160430908,"390":1.950859546661377,"391":-0.5428525805473328,"392":-2.176884651184082,"393":2.5816490650177,"394":2.4600400924682617,"395":-1.1493948698043823,"396":0.6559435129165649,"397":-1.478574514389038,"398":0.4162527918815613,"399":-1.260903000831604,"400":1.7097797393798828,"401":0.8616232872009277,"402":-0.7605955004692078,"403":0.413636177778244,"404":-0.007962553761899471,"405":-0.09757527709007263,"406":1.0921976566314697,"407":-0.01703583635389805,"408":-1.6909207105636597,"409":2.094334125518799,"410":-1.959279179573059,"411":-0.5668649077415466,"412":-0.6034232378005981,"413":0.9400242567062378,"414":0.850581169128418,"415":-0.07115066796541214,"416":-0.030111044645309448,"417":-0.3619694411754608,"418":-0.2028079628944397,"419":0.2555127739906311,"420":0.7367136478424072,"421":1.8224087953567505,"422":0.014140426181256771,"423":-1.0462424755096436,"424":-0.09856372326612473,"425":0.023313943296670914,"426":-0.6726052165031433,"427":-0.7424603700637817,"428":-0.44007956981658936,"429":-0.7765266299247742,"430":0.35005009174346924,"431":0.5597094297409058,"432":-0.41771239042282104,"433":0.5284967422485352,"434":-0.7230135202407837,"435":-0.3381279706954956,"436":0.26302841305732727,"437":-1.5839488506317139,"438":1.051107406616211,"439":-0.3135843873023987,"440":-0.6529627442359924,"441":0.9128180146217346,"442":0.5273199677467346,"443":1.7182128429412842,"444":0.029521893709897995,"445":-0.6684862375259399,"446":-0.6567941308021545,"447":-0.6621450781822205,"448":-1.6727207899093628,"449":-1.274734377861023,"450":0.41564974188804626,"451":0.24126964807510376,"452":-1.9456958770751953,"453":1.4737621545791626,"454":0.07053251564502716,"455":0.11615117639303207,"456":-0.3188125491142273,"457":1.3607455492019653,"458":-1.1152596473693848,"459":0.6933497190475464}},"outputHidden":{"rows":20,"columns":20,"weights":{"0":-0.176822230219841,"1":-0.7406315803527832,"2":1.6218154430389404,"3":-0.19034352898597717,"4":-0.22534194588661194,"5":-0.3912626802921295,"6":-0.5909185409545898,"7":-0.1499820202589035,"8":0.520940363407135,"9":-0.046926360577344894,"10":0.9799739122390747,"11":1.7648108005523682,"12":0.6422953605651855,"13":-0.21048091351985931,"14":0.07341928035020828,"15":-0.7485286593437195,"16":0.185408815741539,"17":-0.16953061521053314,"18":1.301741361618042,"19":0.879289984703064,"20":0.7611408233642578,"21":-2.119332790374756,"22":-0.76645827293396,"23":-0.2612825930118561,"24":-2.1213085651397705,"25":2.178635835647583,"26":1.2268966436386108,"27":1.8047984838485718,"28":-1.7241432666778564,"29":0.870115339756012,"30":0.5100967288017273,"31":1.4159719944000244,"32":-2.3832859992980957,"33":2.72645902633667,"34":1.4205341339111328,"35":0.594850480556488,"36":1.0397095680236816,"37":-1.792136788368225,"38":-1.8316158056259155,"39":-2.137437343597412,"40":2.1931169033050537,"41":-0.085599884390831,"42":0.6476000547409058,"43":0.1457059532403946,"44":-0.744949996471405,"45":-2.3133795261383057,"46":1.5471452474594116,"47":-1.391778826713562,"48":2.836378574371338,"49":-3.147756576538086,"50":3.846651077270508,"51":0.04023053124547005,"52":2.5704572200775146,"53":-1.6503214836120605,"54":-0.02832486480474472,"55":0.38247326016426086,"56":-2.8666462898254395,"57":-0.20491886138916016,"58":1.9828212261199951,"59":-2.307260513305664,"60":0.26642584800720215,"61":-0.9424211978912354,"62":-0.33212393522262573,"63":-0.21378161013126373,"64":0.3112008571624756,"65":-1.155897855758667,"66":-0.5403857827186584,"67":1.0345656871795654,"68":0.960412859916687,"69":-0.15336894989013672,"70":-0.3439030647277832,"71":-0.10233832895755768,"72":-0.4345545172691345,"73":-0.32429447770118713,"74":1.0458217859268188,"75":-0.4595091938972473,"76":0.690401017665863,"77":-0.66007399559021,"78":-1.0915759801864624,"79":-0.04486307501792908,"80":0.14340698719024658,"81":2.5339550971984863,"82":-0.8211395740509033,"83":1.5801870822906494,"84":-1.7000819444656372,"85":1.3044276237487793,"86":-0.3011031150817871,"87":1.6265242099761963,"88":-0.8645735383033752,"89":-0.3568892478942871,"90":0.009213684126734734,"91":-1.0441069602966309,"92":-0.9706311821937561,"93":-0.3964543044567108,"94":-1.586656093597412,"95":1.0011489391326904,"96":1.6701834201812744,"97":1.562301754951477,"98":-0.4293477237224579,"99":0.46248313784599304,"100":1.3591868877410889,"101":0.8362252712249756,"102":-2.1197471618652344,"103":0.884884238243103,"104":0.8894472122192383,"105":-1.422465205192566,"106":1.2064969539642334,"107":-1.2514101266860962,"108":1.117226004600525,"109":-1.2174416780471802,"110":0.3836781084537506,"111":-0.5697532296180725,"112":0.8857158422470093,"113":-0.03513399139046669,"114":-0.9437771439552307,"115":0.06925208121538162,"116":-0.6412617564201355,"117":1.604840874671936,"118":2.979612112045288,"119":-1.5287187099456787,"120":-1.0738581418991089,"121":-0.6681898236274719,"122":1.1262937784194946,"123":-1.99290931224823,"124":-0.5507724285125732,"125":0.9594111442565918,"126":-0.010944650508463383,"127":0.45312586426734924,"128":-0.48349472880363464,"129":0.6675304174423218,"130":-0.3757728338241577,"131":3.015631675720215,"132":-0.3098585605621338,"133":-0.14897765219211578,"134":1.818383812904358,"135":-0.005642258562147617,"136":1.1799827814102173,"137":-2.0679681301116943,"138":-0.9372499585151672,"139":1.3275493383407593,"140":1.7956095933914185,"141":1.9431040287017822,"142":-2.6643524169921875,"143":0.7559032440185547,"144":0.48603713512420654,"145":-2.04272723197937,"146":-0.06706984341144562,"147":-1.5153487920761108,"148":1.9850480556488037,"149":-0.22910423576831818,"150":-2.0559768676757812,"151":-0.8652237057685852,"152":1.803678274154663,"153":-1.1072953939437866,"154":-1.5089458227157593,"155":0.9478417038917542,"156":-2.1476478576660156,"157":1.2165981531143188,"158":-0.06262551248073578,"159":-0.7898260354995728,"160":0.7260870337486267,"161":-0.31413570046424866,"162":-1.5833189487457275,"163":-0.17646975815296173,"164":0.3259009122848511,"165":-0.0338972806930542,"166":-0.3718107044696808,"167":-0.043102674186229706,"168":0.7913021445274353,"169":-0.4916801154613495,"170":0.8039926886558533,"171":-0.9946198463439941,"172":1.1657811403274536,"173":-0.8185804486274719,"174":0.3660221993923187,"175":-0.9549482464790344,"176":-1.0018417835235596,"177":0.14034442603588104,"178":0.028611958026885986,"179":-0.476988285779953,"180":0.9110931158065796,"181":2.0590643882751465,"182":-1.0494059324264526,"183":1.6257166862487793,"184":-0.012910250574350357,"185":-0.9477598667144775,"186":-0.4385686218738556,"187":-0.4305388629436493,"188":-0.21967190504074097,"189":-0.9343248009681702,"190":0.2042570412158966,"191":-2.2041666507720947,"192":-0.3874683380126953,"193":0.377389520406723,"194":-1.1521750688552856,"195":0.6493996977806091,"196":0.11771084368228912,"197":1.3109126091003418,"198":-0.84769606590271,"199":-0.627824604511261,"200":-0.6949270367622375,"201":-1.6760568618774414,"202":1.5608561038970947,"203":-2.638763904571533,"204":-0.23820337653160095,"205":0.2042822390794754,"206":-0.8327478170394897,"207":0.28223007917404175,"208":-0.21588480472564697,"209":-1.338232159614563,"210":0.011002946645021439,"211":4.085643768310547,"212":0.06392243504524231,"213":-1.7899600267410278,"214":1.6675623655319214,"215":-2.3721725940704346,"216":-0.3905319273471832,"217":-2.379499912261963,"218":-0.21374599635601044,"219":0.6137800812721252,"220":0.7372075915336609,"221":-0.9940071702003479,"222":0.9506305456161499,"223":-0.3241003751754761,"224":1.4765721559524536,"225":-1.7094526290893555,"226":0.7920023798942566,"227":-2.8159642219543457,"228":1.8994638919830322,"229":-0.44027820229530334,"230":0.49145743250846863,"231":-0.5958197116851807,"232":1.4997928142547607,"233":-2.363670825958252,"234":0.18447008728981018,"235":0.2998855412006378,"236":-2.3552169799804688,"237":0.07932475209236145,"238":1.639893651008606,"239":0.8358432054519653,"240":0.9602938890457153,"241":0.19143733382225037,"242":-1.397253394126892,"243":-0.012462874874472618,"244":0.3360523581504822,"245":0.18281704187393188,"246":0.34467360377311707,"247":0.4067998230457306,"248":-0.21917398273944855,"249":-0.806047797203064,"250":-0.6194745898246765,"251":-1.1185013055801392,"252":0.3678675591945648,"253":-1.083714485168457,"254":-0.3203674852848053,"255":0.1964375525712967,"256":0.09068264812231064,"257":-0.032972756773233414,"258":0.31684839725494385,"259":1.5117591619491577,"260":0.4476351737976074,"261":-1.9451022148132324,"262":-1.2269610166549683,"263":-0.41741880774497986,"264":-0.6896522045135498,"265":1.2249252796173096,"266":0.7277712821960449,"267":2.8163881301879883,"268":-1.3631376028060913,"269":0.8577349185943604,"270":1.9884225130081177,"271":-0.6872512102127075,"272":-1.5948184728622437,"273":0.4427553415298462,"274":1.4896436929702759,"275":1.135799765586853,"276":0.9091083407402039,"277":-1.321915626525879,"278":-0.7931385636329651,"279":1.8468424081802368,"280":-0.8796079754829407,"281":-0.7390769124031067,"282":0.492953896522522,"283":0.09790180623531342,"284":1.22550368309021,"285":0.6532226800918579,"286":-1.3834577798843384,"287":-0.38835611939430237,"288":-0.05260755121707916,"289":1.2698231935501099,"290":1.4556884765625,"291":1.1295459270477295,"292":-0.19485606253147125,"293":0.46102163195610046,"294":0.28989943861961365,"295":-3.244192361831665,"296":1.271897554397583,"297":1.2956891059875488,"298":-3.0518815517425537,"299":1.0700169801712036,"300":-0.7466117143630981,"301":-1.1983023881912231,"302":0.5008300542831421,"303":-1.8741428852081299,"304":-1.7468868494033813,"305":0.2667008340358734,"306":-0.9033248424530029,"307":0.8257201910018921,"308":-0.003883671248331666,"309":0.6136972308158875,"310":-2.7628581523895264,"311":1.6704652309417725,"312":-1.345204472541809,"313":-1.5259320735931396,"314":1.0331554412841797,"315":-0.21456138789653778,"316":-0.18660303950309753,"317":-1.5008906126022339,"318":-1.1285804510116577,"319":1.4202479124069214,"320":1.7576546669006348,"321":1.190316915512085,"322":-1.2205640077590942,"323":0.7048603296279907,"324":-0.5859617590904236,"325":0.9461190700531006,"326":1.5700008869171143,"327":0.5508796572685242,"328":-0.7979195713996887,"329":-1.5193268060684204,"330":0.015952395275235176,"331":-1.1356534957885742,"332":0.8084222674369812,"333":1.1164873838424683,"334":-0.04946781322360039,"335":0.2971024811267853,"336":-0.20103022456169128,"337":0.8745454549789429,"338":0.6246657371520996,"339":-0.06077324599027634,"340":0.678905725479126,"341":-0.07835108786821365,"342":-0.8079444169998169,"343":-0.11499210447072983,"344":0.6209120154380798,"345":-0.6314653158187866,"346":-0.6669881343841553,"347":0.02048778347671032,"348":0.42687055468559265,"349":-0.46007418632507324,"350":-0.8155915141105652,"351":0.4394339919090271,"352":-0.47183841466903687,"353":0.008195657283067703,"354":0.6423670053482056,"355":0.4041484594345093,"356":-0.40892335772514343,"357":0.2278805673122406,"358":-1.2179155349731445,"359":0.42276597023010254,"360":2.372105360031128,"361":2.3375179767608643,"362":0.8374006152153015,"363":0.8911247253417969,"364":1.4492355585098267,"365":-1.891634225845337,"366":2.221116781234741,"367":-0.6448308229446411,"368":1.4724472761154175,"369":-2.3988280296325684,"370":-0.613155722618103,"371":-1.546208143234253,"372":1.296048879623413,"373":-0.2605571448802948,"374":-1.9114100933074951,"375":-0.6573347449302673,"376":-2.362173557281494,"377":2.473301410675049,"378":2.5608291625976562,"379":-2.699139356613159,"380":1.63196861743927,"381":0.3879382014274597,"382":0.13436637818813324,"383":0.018555745482444763,"384":0.6620591282844543,"385":-3.1851933002471924,"386":1.1420148611068726,"387":-1.9236173629760742,"388":2.6990978717803955,"389":-3.0115716457366943,"390":-0.702526330947876,"391":0.4248270094394684,"392":1.7395873069763184,"393":-0.09098967164754868,"394":-0.8002505898475647,"395":0.5889046788215637,"396":-1.6007250547409058,"397":0.11757694184780121,"398":0.5482078194618225,"399":0.7798624038696289}},"outputBias":{"rows":20,"columns":1,"weights":{"0":-0.7968656420707703,"1":-0.7706917524337769,"2":-0.713010311126709,"3":-1.058157205581665,"4":-0.05211314931511879,"5":0.8261250853538513,"6":-0.5316476821899414,"7":0.8188214302062988,"8":0.01345285028219223,"9":-0.7732025980949402,"10":-0.7104328870773315,"11":0.6510782241821289,"12":0.1257968693971634,"13":0.7547598481178284,"14":-0.0020697920117527246,"15":-0.5098452568054199,"16":0.39010336995124817,"17":-0.5525944828987122,"18":-1.8001524209976196,"19":-0.20917382836341858}},"cellActivationMatrix":{"rows":20,"columns":23,"weights":{"0":0.14398247003555298,"1":1.3280080556869507,"2":-1.3939006328582764,"3":-1.139962911605835,"4":0.4167901575565338,"5":-0.7510132193565369,"6":0.7066584229469299,"7":0.5583449602127075,"8":1.0557655096054077,"9":-0.9892453551292419,"10":0.4436332583427429,"11":-0.1415194422006607,"12":-0.3649740517139435,"13":0.771487832069397,"14":0.8124191761016846,"15":-0.663637101650238,"16":0.034501295536756516,"17":1.4718542098999023,"18":-1.390026569366455,"19":0.5876744985580444,"20":0.7824892401695251,"21":-0.018994230777025223,"22":-0.7665742635726929,"23":1.1917335987091064,"24":-0.22236515581607819,"25":0.19530089199543,"26":0.23704034090042114,"27":1.0253980159759521,"28":-0.17272549867630005,"29":-0.9600763916969299,"30":-0.8971217274665833,"31":-0.17818287014961243,"32":0.19955067336559296,"33":-0.9592486619949341,"34":-1.423352599143982,"35":-1.5664939880371094,"36":1.1869293451309204,"37":1.228463053703308,"38":0.08571848273277283,"39":1.3715788125991821,"40":-0.07519003748893738,"41":0.0820588767528534,"42":0.32298824191093445,"43":-1.3038331270217896,"44":-0.28863945603370667,"45":0.8766003847122192,"46":-0.8845216631889343,"47":0.7477258443832397,"48":0.06803244352340698,"49":-0.3869774341583252,"50":0.46409371495246887,"51":0.29866674542427063,"52":1.1478543281555176,"53":0.33944693207740784,"54":0.36201271414756775,"55":0.28595519065856934,"56":-0.40610572695732117,"57":0.32433274388313293,"58":0.049153443425893784,"59":0.2398422807455063,"60":-0.7216994166374207,"61":-1.321833848953247,"62":-0.4785703718662262,"63":-0.34699422121047974,"64":0.7681613564491272,"65":0.3328343331813812,"66":1.3279560804367065,"67":0.5946647524833679,"68":-0.8780435919761658,"69":0.030303403735160828,"70":2.1075680255889893,"71":-1.338839054107666,"72":-1.5002551078796387,"73":0.9385916590690613,"74":-0.8891631960868835,"75":0.2674279510974884,"76":0.7925000786781311,"77":-0.18731890618801117,"78":-1.4873727560043335,"79":-0.06418397277593613,"80":0.06966251134872437,"81":-0.9557930827140808,"82":0.4463964104652405,"83":0.43833842873573303,"84":-0.4128844738006592,"85":0.6300628185272217,"86":1.4389406442642212,"87":-1.424612045288086,"88":2.047863721847534,"89":0.7445055246353149,"90":1.05678391456604,"91":-0.36310794949531555,"92":0.3303084969520569,"93":0.8276092410087585,"94":-0.6643803715705872,"95":-0.6505206227302551,"96":0.6301852464675903,"97":-0.7872298955917358,"98":0.4429561495780945,"99":0.5256897807121277,"100":0.7376773357391357,"101":-0.46605610847473145,"102":0.9042716026306152,"103":0.2374958097934723,"104":-0.11615393310785294,"105":1.1105965375900269,"106":0.7688878178596497,"107":-0.1389359086751938,"108":-0.005582774989306927,"109":1.1732076406478882,"110":-0.9107754826545715,"111":0.5266789197921753,"112":0.007729360833764076,"113":0.7790641188621521,"114":-1.0361961126327515,"115":0.044779784977436066,"116":-0.7238520383834839,"117":1.0444445610046387,"118":1.1428581476211548,"119":-0.7567501664161682,"120":1.288260817527771,"121":0.053452808409929276,"122":-0.2773696482181549,"123":0.0010620973771438003,"124":1.0344512462615967,"125":0.6437547206878662,"126":-0.8890982866287231,"127":-0.3930061459541321,"128":-0.5333290100097656,"129":-0.8005859851837158,"130":-0.019520623609423637,"131":0.5577447414398193,"132":-0.8480488657951355,"133":1.4407907724380493,"134":-1.561605453491211,"135":-0.2565639615058899,"136":-1.4993605613708496,"137":0.13708990812301636,"138":0.7393913269042969,"139":0.8183010816574097,"140":-0.3713943064212799,"141":-0.5542508363723755,"142":0.7476325631141663,"143":-0.9705781936645508,"144":-0.8620610237121582,"145":-0.467402845621109,"146":-0.36820927262306213,"147":-0.2357189655303955,"148":-0.00552408117800951,"149":0.5394954681396484,"150":0.09338878095149994,"151":0.8641824722290039,"152":1.1862902641296387,"153":1.431388020515442,"154":-0.21042634546756744,"155":0.10013697296380997,"156":-0.6550960540771484,"157":0.7734247446060181,"158":-0.11005368828773499,"159":2.373910903930664,"160":-1.1420691013336182,"161":-0.29470735788345337,"162":-0.5533098578453064,"163":0.9391436576843262,"164":0.3952035903930664,"165":-0.23398174345493317,"166":1.4925321340560913,"167":-0.5195693373680115,"168":-0.47176027297973633,"169":-0.7726052403450012,"170":0.6291584968566895,"171":0.048990074545145035,"172":-0.9568509459495544,"173":-0.5716413259506226,"174":-0.42096778750419617,"175":-0.9736725687980652,"176":0.3966483175754547,"177":0.5674213171005249,"178":-1.3206218481063843,"179":1.0726704597473145,"180":-0.965499222278595,"181":-0.49661967158317566,"182":-1.229184865951538,"183":0.799348771572113,"184":0.15359877049922943,"185":0.36722564697265625,"186":-1.049574375152588,"187":-0.36651358008384705,"188":0.5344003438949585,"189":-1.5738903284072876,"190":-0.030007995665073395,"191":0.5195386409759521,"192":0.2452765703201294,"193":-1.034355878829956,"194":0.33437904715538025,"195":0.6616539359092712,"196":0.3512346148490906,"197":0.7981216907501221,"198":1.4003164768218994,"199":0.07921923696994781,"200":-0.3577756881713867,"201":1.2182046175003052,"202":-1.5530157089233398,"203":0.7251194715499878,"204":-0.29136335849761963,"205":0.7388249635696411,"206":-0.0015280579682439566,"207":-0.7278791666030884,"208":-0.03416372835636139,"209":0.46267375349998474,"210":-0.21528589725494385,"211":-0.2568151354789734,"212":0.42979201674461365,"213":0.5917307734489441,"214":0.26165708899497986,"215":0.6546685099601746,"216":0.2131757289171219,"217":0.7708590030670166,"218":0.47328460216522217,"219":0.7406527996063232,"220":0.18567806482315063,"221":0.040613967925310135,"222":-0.28949692845344543,"223":-0.5386661887168884,"224":-0.2543965280056,"225":0.6419901251792908,"226":-0.45580869913101196,"227":0.9963779449462891,"228":-0.30621084570884705,"229":-0.9653032422065735,"230":-0.33979111909866333,"231":0.6853982210159302,"232":-1.4131734371185303,"233":-0.38388344645500183,"234":0.877304196357727,"235":-0.9726171493530273,"236":1.5139020681381226,"237":0.6706908345222473,"238":1.0605396032333374,"239":-0.9440988898277283,"240":0.8976354598999023,"241":0.8748293519020081,"242":-0.4790678918361664,"243":0.8844818472862244,"244":1.0387613773345947,"245":-1.2659515142440796,"246":0.03404776006937027,"247":0.7990869283676147,"248":-0.8927357196807861,"249":0.5757832527160645,"250":0.9373886585235596,"251":-0.7759732007980347,"252":-0.6141851544380188,"253":0.3573535084724426,"254":-1.2437899112701416,"255":0.783643364906311,"256":0.8064423203468323,"257":-1.3909823894500732,"258":0.7669616937637329,"259":0.8387801647186279,"260":-0.37514862418174744,"261":1.6162233352661133,"262":0.17188102006912231,"263":-0.35934075713157654,"264":-0.17993928492069244,"265":-0.328776091337204,"266":-1.3890011310577393,"267":-1.5039265155792236,"268":-0.9270274639129639,"269":0.21512947976589203,"270":-0.26888853311538696,"271":0.37618064880371094,"272":-0.6502336859703064,"273":0.24231748282909393,"274":-1.6116063594818115,"275":0.057431116700172424,"276":-0.34948980808258057,"277":1.0322333574295044,"278":-1.00575590133667,"279":-1.2010517120361328,"280":0.693650484085083,"281":-0.07962339371442795,"282":1.174365758895874,"283":0.11047995835542679,"284":0.35581499338150024,"285":-1.2404310703277588,"286":-0.04304225742816925,"287":0.16115233302116394,"288":-0.38158535957336426,"289":0.9994543194770813,"290":0.9573712348937988,"291":-1.2685904502868652,"292":0.3018118441104889,"293":1.2375541925430298,"294":-0.8986007571220398,"295":0.8241580128669739,"296":0.7706823348999023,"297":0.32024186849594116,"298":-0.08573565632104874,"299":0.2984003722667694,"300":-0.241514652967453,"301":0.35957130789756775,"302":-0.1256977915763855,"303":0.3729269802570343,"304":-0.09593775868415833,"305":-0.18483459949493408,"306":-0.7056877017021179,"307":-1.0555074214935303,"308":-0.22752369940280914,"309":-2.15555739402771,"310":-1.817169189453125,"311":0.03789445012807846,"312":0.2923873960971832,"313":0.1702594757080078,"314":0.030511515215039253,"315":0.04673425108194351,"316":-0.25563889741897583,"317":0.34977564215660095,"318":-0.022405071184039116,"319":-0.725299060344696,"320":-0.9032333493232727,"321":1.4039069414138794,"322":0.33148303627967834,"323":-1.2871925830841064,"324":0.2916647493839264,"325":0.6501773595809937,"326":-0.8127421140670776,"327":0.2168561965227127,"328":-0.8075114488601685,"329":0.1529618203639984,"330":-0.24919086694717407,"331":0.7057239413261414,"332":0.4270710051059723,"333":0.8360795378684998,"334":0.7718901038169861,"335":-0.9652420282363892,"336":-0.672497034072876,"337":0.6931523084640503,"338":-1.564292311668396,"339":-1.089859962463379,"340":0.4044828712940216,"341":-0.6197963356971741,"342":-0.5246092081069946,"343":-0.7706047892570496,"344":0.48857855796813965,"345":-0.6947001218795776,"346":0.8197664022445679,"347":-0.9074530601501465,"348":-0.0023842293303459883,"349":-0.02612191066145897,"350":-0.0272336695343256,"351":-0.3059382438659668,"352":0.1506296694278717,"353":-1.616324543952942,"354":-0.45296740531921387,"355":-0.6456493139266968,"356":0.28777197003364563,"357":1.2524876594543457,"358":0.589614748954773,"359":0.6466313600540161,"360":0.9089552164077759,"361":-0.5521984100341797,"362":0.8783023953437805,"363":-1.1032294034957886,"364":0.4833908975124359,"365":1.4617804288864136,"366":0.8727566003799438,"367":0.05291116237640381,"368":-0.31774792075157166,"369":-0.377246618270874,"370":0.5651580095291138,"371":0.7575199604034424,"372":-0.6690778136253357,"373":1.2836836576461792,"374":0.03195462003350258,"375":-0.7900323271751404,"376":-0.6715126633644104,"377":0.6200632452964783,"378":-1.0538465976715088,"379":-0.8818309307098389,"380":-0.33650627732276917,"381":-0.5248614549636841,"382":-0.940483033657074,"383":-0.17087960243225098,"384":0.26125678420066833,"385":-0.6432692408561707,"386":0.7220346331596375,"387":-0.6556559801101685,"388":0.03803417831659317,"389":-1.244641900062561,"390":0.560310423374176,"391":0.8592609167098999,"392":0.5960433483123779,"393":-1.6965121030807495,"394":-1.2423696517944336,"395":0.06096823513507843,"396":-2.2454960346221924,"397":0.2502044141292572,"398":-0.5384839177131653,"399":-0.39217132329940796,"400":-1.748067021369934,"401":-0.3167117238044739,"402":0.04224465414881706,"403":-0.147347554564476,"404":0.013569076545536518,"405":0.3404332399368286,"406":-1.283225178718567,"407":0.20468178391456604,"408":1.7400994300842285,"409":-1.4178626537322998,"410":1.04740309715271,"411":0.7526580691337585,"412":1.509291172027588,"413":-0.22859013080596924,"414":1.0143486261367798,"415":0.44720059633255005,"416":-0.3375989496707916,"417":-0.6002174615859985,"418":0.4588771164417267,"419":0.3496021032333374,"420":1.1491535902023315,"421":0.12084605544805527,"422":0.8903757929801941,"423":-0.4153813123703003,"424":-0.32550498843193054,"425":-1.621588945388794,"426":-2.1386301517486572,"427":-0.019136082381010056,"428":-0.0298197939991951,"429":-0.6971439719200134,"430":1.7201403379440308,"431":-0.09338167309761047,"432":0.04453293979167938,"433":-0.0518304817378521,"434":-0.5662794709205627,"435":-0.4455512762069702,"436":0.03857085481286049,"437":-1.3447619676589966,"438":-0.05329466983675957,"439":0.6849842071533203,"440":0.8492379784584045,"441":0.023787472397089005,"442":0.08013493567705154,"443":-0.13350045680999756,"444":0.4545734226703644,"445":0.7452381253242493,"446":1.5297331809997559,"447":0.4246827960014343,"448":0.907325267791748,"449":0.8913553953170776,"450":0.24884289503097534,"451":0.03399658203125,"452":0.08154846727848053,"453":-0.9370785355567932,"454":-1.7076119184494019,"455":0.8085059523582458,"456":-0.28491735458374023,"457":-0.45641615986824036,"458":0.8081755042076111,"459":-0.935516357421875}},"cellActivationHidden":{"rows":20,"columns":20,"weights":{"0":-0.13437458872795105,"1":-0.9787883162498474,"2":0.6329702734947205,"3":-0.42372217774391174,"4":-0.3244278132915497,"5":0.613874077796936,"6":0.002872396958991885,"7":0.882148265838623,"8":-0.32087811827659607,"9":0.5702687501907349,"10":0.15567857027053833,"11":0.06013449653983116,"12":-0.9781602621078491,"13":0.4074702858924866,"14":0.6159239411354065,"15":1.2242859601974487,"16":0.7051001191139221,"17":-0.8868309259414673,"18":-1.2806569337844849,"19":0.4332622289657593,"20":-0.5458902716636658,"21":0.949289858341217,"22":0.30549106001853943,"23":0.07978986203670502,"24":0.7211931943893433,"25":-0.21291659772396088,"26":-0.6933606863021851,"27":-0.5258535146713257,"28":0.09268240630626678,"29":-0.26533153653144836,"30":-0.4127899706363678,"31":0.276123583316803,"32":1.380275845527649,"33":-0.8524934649467468,"34":-1.0575261116027832,"35":-0.025468934327363968,"36":-0.43340185284614563,"37":0.3080815374851227,"38":-0.4065052270889282,"39":0.05393660441040993,"40":0.0920652523636818,"41":2.1822562217712402,"42":0.3904643654823303,"43":1.8094556331634521,"44":0.31375357508659363,"45":0.42333078384399414,"46":-0.9121500849723816,"47":-0.4321849048137665,"48":0.03363426402211189,"49":-0.5365815758705139,"50":-0.6106329560279846,"51":-2.1792354583740234,"52":0.6707239151000977,"53":1.3551572561264038,"54":-1.9947646856307983,"55":0.7474730014801025,"56":-0.0963306576013565,"57":1.303637981414795,"58":-0.37406790256500244,"59":-1.514258623123169,"60":0.49568691849708557,"61":0.3909704387187958,"62":-0.2826557457447052,"63":0.6053869128227234,"64":-0.08090825378894806,"65":-0.8680689930915833,"66":-0.02453767880797386,"67":-0.012146137654781342,"68":0.5276247262954712,"69":-1.2744828462600708,"70":-0.6865296959877014,"71":1.263320803642273,"72":0.17668120563030243,"73":-0.5304028391838074,"74":-0.16913430392742157,"75":-1.2910699844360352,"76":-1.4931670427322388,"77":0.23961475491523743,"78":0.5324408411979675,"79":-1.091408371925354,"80":-0.4550824463367462,"81":-1.0627267360687256,"82":-0.2098696231842041,"83":-0.9682900905609131,"84":-1.3825719356536865,"85":0.032267775386571884,"86":-1.3436278104782104,"87":-1.2410025596618652,"88":1.1284074783325195,"89":-0.10144133120775223,"90":0.4032588005065918,"91":0.9874780774116516,"92":1.4765710830688477,"93":-0.39326852560043335,"94":0.8921597003936768,"95":-1.015938639640808,"96":-0.5667458772659302,"97":-1.1293092966079712,"98":0.30142828822135925,"99":-0.76548832654953,"100":-0.1493663638830185,"101":0.32253575325012207,"102":-0.13392797112464905,"103":0.252019464969635,"104":-0.0883713811635971,"105":-0.15254329144954681,"106":0.2234354019165039,"107":-0.012813415378332138,"108":0.2718231678009033,"109":0.05445852130651474,"110":0.5102863907814026,"111":-0.2160366177558899,"112":0.06665629148483276,"113":0.29417884349823,"114":-0.2947922646999359,"115":0.16321711242198944,"116":0.05876987800002098,"117":0.2654600441455841,"118":-0.2644762098789215,"119":-0.621729850769043,"120":-0.19604526460170746,"121":0.21840819716453552,"122":0.5779431462287903,"123":0.3102978765964508,"124":-0.2970508933067322,"125":0.17416851222515106,"126":0.34967029094696045,"127":0.09154205769300461,"128":0.36700382828712463,"129":-0.09553971141576767,"130":0.4252524971961975,"131":0.6875264644622803,"132":0.34393149614334106,"133":-0.7311016321182251,"134":-0.14170894026756287,"135":-0.3117610812187195,"136":-0.15963329374790192,"137":0.06406655162572861,"138":0.5255653858184814,"139":-0.6510212421417236,"140":0.5037168264389038,"141":1.1013532876968384,"142":-1.3977464437484741,"143":0.647113025188446,"144":-0.3294985294342041,"145":-0.25258690118789673,"146":0.4643060266971588,"147":0.3623626232147217,"148":0.21406126022338867,"149":0.22802242636680603,"150":0.3818508982658386,"151":-0.28939273953437805,"152":0.026382317766547203,"153":0.5062007308006287,"154":-1.1419070959091187,"155":2.015840530395508,"156":0.6499438881874084,"157":0.9769700169563293,"158":0.5568268895149231,"159":-0.5055933594703674,"160":-0.5626615285873413,"161":-0.6718581318855286,"162":0.7461940050125122,"163":-0.5271106958389282,"164":-0.20474368333816528,"165":0.35194703936576843,"166":-0.5685665011405945,"167":0.13133090734481812,"168":-0.6044787168502808,"169":0.03879318758845329,"170":-0.13264885544776917,"171":0.14830733835697174,"172":0.05294937640428543,"173":-0.7742514610290527,"174":0.4336354732513428,"175":-0.46382781863212585,"176":0.012093720957636833,"177":-0.7481552958488464,"178":-0.31721290946006775,"179":0.2893965542316437,"180":-0.749065101146698,"181":0.8211619853973389,"182":-0.29212266206741333,"183":0.705700695514679,"184":-0.6131700873374939,"185":0.2750900983810425,"186":-0.5200631618499756,"187":0.532686173915863,"188":-0.48354876041412354,"189":0.05250298231840134,"190":-0.19323144853115082,"191":-0.7870997786521912,"192":0.2457415759563446,"193":0.3879666328430176,"194":-0.7312268018722534,"195":0.5070503950119019,"196":0.7899778485298157,"197":0.8281270265579224,"198":-0.27629104256629944,"199":0.5442140102386475,"200":-0.36671730875968933,"201":-0.5034881234169006,"202":1.559473991394043,"203":-0.7111928462982178,"204":-0.7776263952255249,"205":0.8428571820259094,"206":0.7682202458381653,"207":0.9739819765090942,"208":-0.3582475483417511,"209":0.4405137896537781,"210":-0.13619978725910187,"211":0.7653726935386658,"212":-0.8039231300354004,"213":-0.07416690140962601,"214":-0.16640715301036835,"215":0.36609601974487305,"216":0.7141352891921997,"217":-0.535193145275116,"218":-0.1323929876089096,"219":0.550790548324585,"220":1.3292514085769653,"221":0.3912660479545593,"222":-0.3049396574497223,"223":0.38245025277137756,"224":0.07055371254682541,"225":-1.3521567583084106,"226":0.29268282651901245,"227":-0.8101668357849121,"228":1.09635591506958,"229":-0.8918308019638062,"230":-0.5104529857635498,"231":-0.8046147227287292,"232":0.8886514902114868,"233":0.30139055848121643,"234":-0.9201643466949463,"235":0.5489894151687622,"236":-1.363108515739441,"237":0.36872512102127075,"238":1.0964282751083374,"239":-0.12671500444412231,"240":-0.959986686706543,